digraph Tree {
node [shape=box, style="rounded", color="black", fontname="helvetica"] ;
edge [fontname="helvetica"] ;
0 [label="CryoSleep_False <= 0.5\nentropy = 1.0\nsamples = 4954\nvalue = [2466, 2488]"] ;
1 [label="HomePlanet_Earth <= 0.5\nentropy = 0.7\nsamples = 1743\nvalue = [325, 1418]"] ;
0 -> 1 [labeldistance=2.5, labelangle=45, headlabel="True"] ;
2 [label="HomePlanet_Europa <= 0.5\nentropy = 0.3\nsamples = 921\nvalue = [41, 880]"] ;
1 -> 2 ;
3 [label="Age <= 16.5\nentropy = 0.4\nsamples = 387\nvalue = [36, 351]"] ;
2 -> 3 ;
4 [label="entropy = 0.0\nsamples = 70\nvalue = [0, 70]"] ;
3 -> 4 ;
5 [label="Age <= 48.5\nentropy = 0.5\nsamples = 317\nvalue = [36, 281]"] ;
3 -> 5 ;
6 [label="Destination_55 Cancri e <= 0.5\nentropy = 0.6\nsamples = 280\nvalue = [36, 244]"] ;
5 -> 6 ;
7 [label="Age <= 22.5\nentropy = 0.6\nsamples = 248\nvalue = [35, 213]"] ;
6 -> 7 ;
8 [label="Age <= 17.5\nentropy = 0.4\nsamples = 67\nvalue = [6, 61]"] ;
7 -> 8 ;
9 [label="entropy = 0.8\nsamples = 4\nvalue = [1, 3]"] ;
8 -> 9 ;
10 [label="Age <= 19.5\nentropy = 0.4\nsamples = 63\nvalue = [5, 58]"] ;
8 -> 10 ;
11 [label="Age <= 18.5\nentropy = 0.5\nsamples = 30\nvalue = [3, 27]"] ;
10 -> 11 ;
12 [label="entropy = 0.3\nsamples = 19\nvalue = [1, 18]"] ;
11 -> 12 ;
13 [label="entropy = 0.7\nsamples = 11\nvalue = [2, 9]"] ;
11 -> 13 ;
14 [label="Age <= 20.5\nentropy = 0.3\nsamples = 33\nvalue = [2, 31]"] ;
10 -> 14 ;
15 [label="entropy = 0.0\nsamples = 10\nvalue = [0, 10]"] ;
14 -> 15 ;
16 [label="Age <= 21.5\nentropy = 0.4\nsamples = 23\nvalue = [2, 21]"] ;
14 -> 16 ;
17 [label="entropy = 0.4\nsamples = 14\nvalue = [1, 13]"] ;
16 -> 17 ;
18 [label="entropy = 0.5\nsamples = 9\nvalue = [1, 8]"] ;
16 -> 18 ;
19 [label="Age <= 23.5\nentropy = 0.6\nsamples = 181\nvalue = [29, 152]"] ;
7 -> 19 ;
20 [label="entropy = 0.9\nsamples = 10\nvalue = [3, 7]"] ;
19 -> 20 ;
21 [label="Age <= 24.5\nentropy = 0.6\nsamples = 171\nvalue = [26, 145]"] ;
19 -> 21 ;
22 [label="entropy = 0.0\nsamples = 13\nvalue = [0, 13]"] ;
21 -> 22 ;
23 [label="Age <= 45.5\nentropy = 0.6\nsamples = 158\nvalue = [26, 132]"] ;
21 -> 23 ;
24 [label="Age <= 42.5\nentropy = 0.6\nsamples = 148\nvalue = [23, 125]"] ;
23 -> 24 ;
25 [label="Age <= 26.5\nentropy = 0.7\nsamples = 134\nvalue = [23, 111]"] ;
24 -> 25 ;
26 [label="Age <= 25.5\nentropy = 0.8\nsamples = 20\nvalue = [5, 15]"] ;
25 -> 26 ;
27 [label="entropy = 0.7\nsamples = 10\nvalue = [2, 8]"] ;
26 -> 27 ;
28 [label="entropy = 0.9\nsamples = 10\nvalue = [3, 7]"] ;
26 -> 28 ;
29 [label="Destination_PSO J318.5-22 <= 0.5\nentropy = 0.6\nsamples = 114\nvalue = [18, 96]"] ;
25 -> 29 ;
30 [label="Age <= 33.5\nentropy = 0.6\nsamples = 111\nvalue = [17, 94]"] ;
29 -> 30 ;
31 [label="Age <= 31.5\nentropy = 0.5\nsamples = 48\nvalue = [6, 42]"] ;
30 -> 31 ;
32 [label="Age <= 27.5\nentropy = 0.6\nsamples = 42\nvalue = [6, 36]"] ;
31 -> 32 ;
33 [label="entropy = 0.7\nsamples = 11\nvalue = [2, 9]"] ;
32 -> 33 ;
34 [label="Age <= 28.5\nentropy = 0.6\nsamples = 31\nvalue = [4, 27]"] ;
32 -> 34 ;
35 [label="entropy = 0.4\nsamples = 12\nvalue = [1, 11]"] ;
34 -> 35 ;
36 [label="Age <= 29.5\nentropy = 0.6\nsamples = 19\nvalue = [3, 16]"] ;
34 -> 36 ;
37 [label="entropy = 0.6\nsamples = 7\nvalue = [1, 6]"] ;
36 -> 37 ;
38 [label="Age <= 30.5\nentropy = 0.7\nsamples = 12\nvalue = [2, 10]"] ;
36 -> 38 ;
39 [label="entropy = 0.7\nsamples = 6\nvalue = [1, 5]"] ;
38 -> 39 ;
40 [label="entropy = 0.7\nsamples = 6\nvalue = [1, 5]"] ;
38 -> 40 ;
41 [label="entropy = 0.0\nsamples = 6\nvalue = [0, 6]"] ;
31 -> 41 ;
42 [label="Age <= 34.5\nentropy = 0.7\nsamples = 63\nvalue = [11, 52]"] ;
30 -> 42 ;
43 [label="entropy = 0.8\nsamples = 11\nvalue = [3, 8]"] ;
42 -> 43 ;
44 [label="Age <= 41.5\nentropy = 0.6\nsamples = 52\nvalue = [8, 44]"] ;
42 -> 44 ;
45 [label="Age <= 37.5\nentropy = 0.6\nsamples = 43\nvalue = [6, 37]"] ;
44 -> 45 ;
46 [label="Age <= 36.5\nentropy = 0.7\nsamples = 24\nvalue = [4, 20]"] ;
45 -> 46 ;
47 [label="Age <= 35.5\nentropy = 0.5\nsamples = 17\nvalue = [2, 15]"] ;
46 -> 47 ;
48 [label="entropy = 0.7\nsamples = 12\nvalue = [2, 10]"] ;
47 -> 48 ;
49 [label="entropy = 0.0\nsamples = 5\nvalue = [0, 5]"] ;
47 -> 49 ;
50 [label="entropy = 0.9\nsamples = 7\nvalue = [2, 5]"] ;
46 -> 50 ;
51 [label="Age <= 38.5\nentropy = 0.5\nsamples = 19\nvalue = [2, 17]"] ;
45 -> 51 ;
52 [label="entropy = 0.0\nsamples = 4\nvalue = [0, 4]"] ;
51 -> 52 ;
53 [label="Age <= 39.5\nentropy = 0.6\nsamples = 15\nvalue = [2, 13]"] ;
51 -> 53 ;
54 [label="entropy = 0.8\nsamples = 4\nvalue = [1, 3]"] ;
53 -> 54 ;
55 [label="Age <= 40.5\nentropy = 0.4\nsamples = 11\nvalue = [1, 10]"] ;
53 -> 55 ;
56 [label="entropy = 0.0\nsamples = 5\nvalue = [0, 5]"] ;
55 -> 56 ;
57 [label="entropy = 0.7\nsamples = 6\nvalue = [1, 5]"] ;
55 -> 57 ;
58 [label="entropy = 0.8\nsamples = 9\nvalue = [2, 7]"] ;
44 -> 58 ;
59 [label="Age <= 29.0\nentropy = 0.9\nsamples = 3\nvalue = [1, 2]"] ;
29 -> 59 ;
60 [label="entropy = 0.0\nsamples = 1\nvalue = [0, 1]"] ;
59 -> 60 ;
61 [label="Age <= 34.5\nentropy = 1.0\nsamples = 2\nvalue = [1, 1]"] ;
59 -> 61 ;
62 [label="entropy = 0.0\nsamples = 1\nvalue = [1, 0]"] ;
61 -> 62 ;
63 [label="entropy = 0.0\nsamples = 1\nvalue = [0, 1]"] ;
61 -> 63 ;
64 [label="entropy = 0.0\nsamples = 14\nvalue = [0, 14]"] ;
24 -> 64 ;
65 [label="Age <= 47.5\nentropy = 0.9\nsamples = 10\nvalue = [3, 7]"] ;
23 -> 65 ;
66 [label="Age <= 46.5\nentropy = 0.9\nsamples = 6\nvalue = [2, 4]"] ;
65 -> 66 ;
67 [label="entropy = 0.9\nsamples = 3\nvalue = [1, 2]"] ;
66 -> 67 ;
68 [label="entropy = 0.9\nsamples = 3\nvalue = [1, 2]"] ;
66 -> 68 ;
69 [label="entropy = 0.8\nsamples = 4\nvalue = [1, 3]"] ;
65 -> 69 ;
70 [label="Age <= 30.5\nentropy = 0.2\nsamples = 32\nvalue = [1, 31]"] ;
6 -> 70 ;
71 [label="entropy = 0.0\nsamples = 21\nvalue = [0, 21]"] ;
70 -> 71 ;
72 [label="Age <= 31.5\nentropy = 0.4\nsamples = 11\nvalue = [1, 10]"] ;
70 -> 72 ;
73 [label="entropy = 0.0\nsamples = 1\nvalue = [1, 0]"] ;
72 -> 73 ;
74 [label="entropy = 0.0\nsamples = 10\nvalue = [0, 10]"] ;
72 -> 74 ;
75 [label="entropy = 0.0\nsamples = 37\nvalue = [0, 37]"] ;
5 -> 75 ;
76 [label="Age <= 3.0\nentropy = 0.1\nsamples = 534\nvalue = [5, 529]"] ;
2 -> 76 ;
77 [label="entropy = 0.0\nsamples = 3\nvalue = [3, 0]"] ;
76 -> 77 ;
78 [label="Age <= 35.5\nentropy = 0.0\nsamples = 531\nvalue = [2, 529]"] ;
76 -> 78 ;
79 [label="Age <= 34.5\nentropy = 0.1\nsamples = 335\nvalue = [2, 333]"] ;
78 -> 79 ;
80 [label="Destination_55 Cancri e <= 0.5\nentropy = 0.0\nsamples = 316\nvalue = [1, 315]"] ;
79 -> 80 ;
81 [label="entropy = 0.0\nsamples = 162\nvalue = [0, 162]"] ;
80 -> 81 ;
82 [label="Age <= 25.5\nentropy = 0.1\nsamples = 154\nvalue = [1, 153]"] ;
80 -> 82 ;
83 [label="Age <= 24.5\nentropy = 0.1\nsamples = 77\nvalue = [1, 76]"] ;
82 -> 83 ;
84 [label="entropy = 0.0\nsamples = 62\nvalue = [0, 62]"] ;
83 -> 84 ;
85 [label="entropy = 0.4\nsamples = 15\nvalue = [1, 14]"] ;
83 -> 85 ;
86 [label="entropy = 0.0\nsamples = 77\nvalue = [0, 77]"] ;
82 -> 86 ;
87 [label="Destination_TRAPPIST-1e <= 0.5\nentropy = 0.3\nsamples = 19\nvalue = [1, 18]"] ;
79 -> 87 ;
88 [label="entropy = 0.0\nsamples = 10\nvalue = [0, 10]"] ;
87 -> 88 ;
89 [label="entropy = 0.5\nsamples = 9\nvalue = [1, 8]"] ;
87 -> 89 ;
90 [label="entropy = 0.0\nsamples = 196\nvalue = [0, 196]"] ;
78 -> 90 ;
91 [label="Destination_55 Cancri e <= 0.5\nentropy = 0.9\nsamples = 822\nvalue = [284, 538]"] ;
1 -> 91 ;
92 [label="Age <= 42.5\nentropy = 0.9\nsamples = 704\nvalue = [259, 445]"] ;
91 -> 92 ;
93 [label="Destination_TRAPPIST-1e <= 0.5\nentropy = 0.9\nsamples = 630\nvalue = [222, 408]"] ;
92 -> 93 ;
94 [label="Age <= 1.5\nentropy = 0.9\nsamples = 192\nvalue = [57, 135]"] ;
93 -> 94 ;
95 [label="entropy = 0.0\nsamples = 9\nvalue = [0, 9]"] ;
94 -> 95 ;
96 [label="Age <= 10.5\nentropy = 0.9\nsamples = 183\nvalue = [57, 126]"] ;
94 -> 96 ;
97 [label="Age <= 2.5\nentropy = 0.9\nsamples = 11\nvalue = [7, 4]"] ;
96 -> 97 ;
98 [label="entropy = 0.0\nsamples = 2\nvalue = [2, 0]"] ;
97 -> 98 ;
99 [label="Age <= 8.0\nentropy = 1.0\nsamples = 9\nvalue = [5, 4]"] ;
97 -> 99 ;
100 [label="Age <= 5.5\nentropy = 1.0\nsamples = 8\nvalue = [4, 4]"] ;
99 -> 100 ;
101 [label="Age <= 4.5\nentropy = 1.0\nsamples = 7\nvalue = [4, 3]"] ;
100 -> 101 ;
102 [label="Age <= 3.5\nentropy = 1.0\nsamples = 5\nvalue = [2, 3]"] ;
101 -> 102 ;
103 [label="entropy = 0.9\nsamples = 3\nvalue = [2, 1]"] ;
102 -> 103 ;
104 [label="entropy = 0.0\nsamples = 2\nvalue = [0, 2]"] ;
102 -> 104 ;
105 [label="entropy = 0.0\nsamples = 2\nvalue = [2, 0]"] ;
101 -> 105 ;
106 [label="entropy = 0.0\nsamples = 1\nvalue = [0, 1]"] ;
100 -> 106 ;
107 [label="entropy = 0.0\nsamples = 1\nvalue = [1, 0]"] ;
99 -> 107 ;
108 [label="Age <= 27.5\nentropy = 0.9\nsamples = 172\nvalue = [50, 122]"] ;
96 -> 108 ;
109 [label="Age <= 24.5\nentropy = 0.9\nsamples = 131\nvalue = [42, 89]"] ;
108 -> 109 ;
110 [label="Age <= 12.0\nentropy = 0.9\nsamples = 111\nvalue = [33, 78]"] ;
109 -> 110 ;
111 [label="entropy = 0.0\nsamples = 1\nvalue = [0, 1]"] ;
110 -> 111 ;
112 [label="Age <= 22.5\nentropy = 0.9\nsamples = 110\nvalue = [33, 77]"] ;
110 -> 112 ;
113 [label="Age <= 16.5\nentropy = 0.9\nsamples = 88\nvalue = [28, 60]"] ;
112 -> 113 ;
114 [label="Age <= 15.5\nentropy = 0.8\nsamples = 28\nvalue = [7, 21]"] ;
113 -> 114 ;
115 [label="Age <= 13.5\nentropy = 0.9\nsamples = 19\nvalue = [6, 13]"] ;
114 -> 115 ;
116 [label="entropy = 0.9\nsamples = 7\nvalue = [2, 5]"] ;
115 -> 116 ;
117 [label="Age <= 14.5\nentropy = 0.9\nsamples = 12\nvalue = [4, 8]"] ;
115 -> 117 ;
118 [label="entropy = 0.9\nsamples = 9\nvalue = [3, 6]"] ;
117 -> 118 ;
119 [label="entropy = 0.9\nsamples = 3\nvalue = [1, 2]"] ;
117 -> 119 ;
120 [label="entropy = 0.5\nsamples = 9\nvalue = [1, 8]"] ;
114 -> 120 ;
121 [label="Age <= 19.5\nentropy = 0.9\nsamples = 60\nvalue = [21, 39]"] ;
113 -> 121 ;
122 [label="Age <= 18.5\nentropy = 1.0\nsamples = 32\nvalue = [13, 19]"] ;
121 -> 122 ;
123 [label="Age <= 17.5\nentropy = 0.9\nsamples = 19\nvalue = [6, 13]"] ;
122 -> 123 ;
124 [label="entropy = 1.0\nsamples = 5\nvalue = [2, 3]"] ;
123 -> 124 ;
125 [label="entropy = 0.9\nsamples = 14\nvalue = [4, 10]"] ;
123 -> 125 ;
126 [label="entropy = 1.0\nsamples = 13\nvalue = [7, 6]"] ;
122 -> 126 ;
127 [label="Age <= 21.5\nentropy = 0.9\nsamples = 28\nvalue = [8, 20]"] ;
121 -> 127 ;
128 [label="Age <= 20.5\nentropy = 0.8\nsamples = 23\nvalue = [6, 17]"] ;
127 -> 128 ;
129 [label="entropy = 0.8\nsamples = 13\nvalue = [3, 10]"] ;
128 -> 129 ;
130 [label="entropy = 0.9\nsamples = 10\nvalue = [3, 7]"] ;
128 -> 130 ;
131 [label="entropy = 1.0\nsamples = 5\nvalue = [2, 3]"] ;
127 -> 131 ;
132 [label="Age <= 23.5\nentropy = 0.8\nsamples = 22\nvalue = [5, 17]"] ;
112 -> 132 ;
133 [label="entropy = 0.5\nsamples = 10\nvalue = [1, 9]"] ;
132 -> 133 ;
134 [label="entropy = 0.9\nsamples = 12\nvalue = [4, 8]"] ;
132 -> 134 ;
135 [label="Age <= 26.5\nentropy = 1.0\nsamples = 20\nvalue = [9, 11]"] ;
109 -> 135 ;
136 [label="Age <= 25.5\nentropy = 1.0\nsamples = 14\nvalue = [7, 7]"] ;
135 -> 136 ;
137 [label="entropy = 1.0\nsamples = 10\nvalue = [4, 6]"] ;
136 -> 137 ;
138 [label="entropy = 0.8\nsamples = 4\nvalue = [3, 1]"] ;
136 -> 138 ;
139 [label="entropy = 0.9\nsamples = 6\nvalue = [2, 4]"] ;
135 -> 139 ;
140 [label="Age <= 28.5\nentropy = 0.7\nsamples = 41\nvalue = [8, 33]"] ;
108 -> 140 ;
141 [label="entropy = 0.0\nsamples = 6\nvalue = [0, 6]"] ;
140 -> 141 ;
142 [label="Age <= 39.0\nentropy = 0.8\nsamples = 35\nvalue = [8, 27]"] ;
140 -> 142 ;
143 [label="Age <= 32.5\nentropy = 0.8\nsamples = 32\nvalue = [8, 24]"] ;
142 -> 143 ;
144 [label="Age <= 29.5\nentropy = 0.9\nsamples = 16\nvalue = [5, 11]"] ;
143 -> 144 ;
145 [label="entropy = 0.7\nsamples = 6\nvalue = [1, 5]"] ;
144 -> 145 ;
146 [label="Age <= 30.5\nentropy = 1.0\nsamples = 10\nvalue = [4, 6]"] ;
144 -> 146 ;
147 [label="entropy = 0.0\nsamples = 1\nvalue = [1, 0]"] ;
146 -> 147 ;
148 [label="Age <= 31.5\nentropy = 0.9\nsamples = 9\nvalue = [3, 6]"] ;
146 -> 148 ;
149 [label="entropy = 0.7\nsamples = 5\nvalue = [1, 4]"] ;
148 -> 149 ;
150 [label="entropy = 1.0\nsamples = 4\nvalue = [2, 2]"] ;
148 -> 150 ;
151 [label="Age <= 33.5\nentropy = 0.7\nsamples = 16\nvalue = [3, 13]"] ;
143 -> 151 ;
152 [label="entropy = 0.0\nsamples = 3\nvalue = [0, 3]"] ;
151 -> 152 ;
153 [label="Age <= 34.5\nentropy = 0.8\nsamples = 13\nvalue = [3, 10]"] ;
151 -> 153 ;
154 [label="entropy = 1.0\nsamples = 2\nvalue = [1, 1]"] ;
153 -> 154 ;
155 [label="Age <= 37.0\nentropy = 0.7\nsamples = 11\nvalue = [2, 9]"] ;
153 -> 155 ;
156 [label="entropy = 0.0\nsamples = 5\nvalue = [0, 5]"] ;
155 -> 156 ;
157 [label="entropy = 0.9\nsamples = 6\nvalue = [2, 4]"] ;
155 -> 157 ;
158 [label="entropy = 0.0\nsamples = 3\nvalue = [0, 3]"] ;
142 -> 158 ;
159 [label="Age <= 9.5\nentropy = 1.0\nsamples = 438\nvalue = [165, 273]"] ;
93 -> 159 ;
160 [label="Age <= 3.5\nentropy = 1.0\nsamples = 92\nvalue = [40, 52]"] ;
159 -> 160 ;
161 [label="Age <= 2.5\nentropy = 0.9\nsamples = 56\nvalue = [19, 37]"] ;
160 -> 161 ;
162 [label="Age <= 0.5\nentropy = 0.9\nsamples = 40\nvalue = [13, 27]"] ;
161 -> 162 ;
163 [label="entropy = 0.9\nsamples = 19\nvalue = [7, 12]"] ;
162 -> 163 ;
164 [label="Age <= 1.5\nentropy = 0.9\nsamples = 21\nvalue = [6, 15]"] ;
162 -> 164 ;
165 [label="entropy = 0.9\nsamples = 13\nvalue = [4, 9]"] ;
164 -> 165 ;
166 [label="entropy = 0.8\nsamples = 8\nvalue = [2, 6]"] ;
164 -> 166 ;
167 [label="entropy = 1.0\nsamples = 16\nvalue = [6, 10]"] ;
161 -> 167 ;
168 [label="Age <= 5.5\nentropy = 1.0\nsamples = 36\nvalue = [21, 15]"] ;
160 -> 168 ;
169 [label="Age <= 4.5\nentropy = 1.0\nsamples = 14\nvalue = [7, 7]"] ;
168 -> 169 ;
170 [label="entropy = 1.0\nsamples = 10\nvalue = [5, 5]"] ;
169 -> 170 ;
171 [label="entropy = 1.0\nsamples = 4\nvalue = [2, 2]"] ;
169 -> 171 ;
172 [label="Age <= 6.5\nentropy = 0.9\nsamples = 22\nvalue = [14, 8]"] ;
168 -> 172 ;
173 [label="entropy = 0.8\nsamples = 4\nvalue = [3, 1]"] ;
172 -> 173 ;
174 [label="Age <= 7.5\nentropy = 1.0\nsamples = 18\nvalue = [11, 7]"] ;
172 -> 174 ;
175 [label="entropy = 1.0\nsamples = 9\nvalue = [5, 4]"] ;
174 -> 175 ;
176 [label="Age <= 8.5\nentropy = 0.9\nsamples = 9\nvalue = [6, 3]"] ;
174 -> 176 ;
177 [label="entropy = 0.0\nsamples = 2\nvalue = [2, 0]"] ;
176 -> 177 ;
178 [label="entropy = 1.0\nsamples = 7\nvalue = [4, 3]"] ;
176 -> 178 ;
179 [label="Age <= 18.5\nentropy = 0.9\nsamples = 346\nvalue = [125, 221]"] ;
159 -> 179 ;
180 [label="Age <= 10.5\nentropy = 0.9\nsamples = 115\nvalue = [33, 82]"] ;
179 -> 180 ;
181 [label="entropy = 0.0\nsamples = 3\nvalue = [0, 3]"] ;
180 -> 181 ;
182 [label="Age <= 12.5\nentropy = 0.9\nsamples = 112\nvalue = [33, 79]"] ;
180 -> 182 ;
183 [label="Age <= 11.5\nentropy = 1.0\nsamples = 11\nvalue = [5, 6]"] ;
182 -> 183 ;
184 [label="entropy = 0.7\nsamples = 5\nvalue = [1, 4]"] ;
183 -> 184 ;
185 [label="entropy = 0.9\nsamples = 6\nvalue = [4, 2]"] ;
183 -> 185 ;
186 [label="Age <= 15.5\nentropy = 0.9\nsamples = 101\nvalue = [28, 73]"] ;
182 -> 186 ;
187 [label="Age <= 14.5\nentropy = 0.8\nsamples = 55\nvalue = [13, 42]"] ;
186 -> 187 ;
188 [label="Age <= 13.5\nentropy = 0.9\nsamples = 33\nvalue = [10, 23]"] ;
187 -> 188 ;
189 [label="entropy = 0.8\nsamples = 12\nvalue = [3, 9]"] ;
188 -> 189 ;
190 [label="entropy = 0.9\nsamples = 21\nvalue = [7, 14]"] ;
188 -> 190 ;
191 [label="entropy = 0.6\nsamples = 22\nvalue = [3, 19]"] ;
187 -> 191 ;
192 [label="Age <= 16.5\nentropy = 0.9\nsamples = 46\nvalue = [15, 31]"] ;
186 -> 192 ;
193 [label="entropy = 1.0\nsamples = 13\nvalue = [5, 8]"] ;
192 -> 193 ;
194 [label="Age <= 17.5\nentropy = 0.9\nsamples = 33\nvalue = [10, 23]"] ;
192 -> 194 ;
195 [label="entropy = 0.8\nsamples = 8\nvalue = [2, 6]"] ;
194 -> 195 ;
196 [label="entropy = 0.9\nsamples = 25\nvalue = [8, 17]"] ;
194 -> 196 ;
197 [label="Age <= 38.5\nentropy = 1.0\nsamples = 231\nvalue = [92, 139]"] ;
179 -> 197 ;
198 [label="Age <= 34.5\nentropy = 1.0\nsamples = 210\nvalue = [86, 124]"] ;
197 -> 198 ;
199 [label="Age <= 31.5\nentropy = 1.0\nsamples = 176\nvalue = [68, 108]"] ;
198 -> 199 ;
200 [label="Age <= 29.5\nentropy = 1.0\nsamples = 157\nvalue = [63, 94]"] ;
199 -> 200 ;
201 [label="Age <= 26.5\nentropy = 1.0\nsamples = 143\nvalue = [55, 88]"] ;
200 -> 201 ;
202 [label="Age <= 24.5\nentropy = 1.0\nsamples = 114\nvalue = [46, 68]"] ;
201 -> 202 ;
203 [label="Age <= 23.5\nentropy = 0.9\nsamples = 95\nvalue = [35, 60]"] ;
202 -> 203 ;
204 [label="Age <= 22.5\nentropy = 1.0\nsamples = 78\nvalue = [31, 47]"] ;
203 -> 204 ;
205 [label="Age <= 19.5\nentropy = 1.0\nsamples = 64\nvalue = [24, 40]"] ;
204 -> 205 ;
206 [label="entropy = 1.0\nsamples = 15\nvalue = [6, 9]"] ;
205 -> 206 ;
207 [label="Age <= 20.5\nentropy = 0.9\nsamples = 49\nvalue = [18, 31]"] ;
205 -> 207 ;
208 [label="entropy = 0.9\nsamples = 14\nvalue = [5, 9]"] ;
207 -> 208 ;
209 [label="Age <= 21.5\nentropy = 1.0\nsamples = 35\nvalue = [13, 22]"] ;
207 -> 209 ;
210 [label="entropy = 0.9\nsamples = 19\nvalue = [7, 12]"] ;
209 -> 210 ;
211 [label="entropy = 1.0\nsamples = 16\nvalue = [6, 10]"] ;
209 -> 211 ;
212 [label="entropy = 1.0\nsamples = 14\nvalue = [7, 7]"] ;
204 -> 212 ;
213 [label="entropy = 0.8\nsamples = 17\nvalue = [4, 13]"] ;
203 -> 213 ;
214 [label="Age <= 25.5\nentropy = 1.0\nsamples = 19\nvalue = [11, 8]"] ;
202 -> 214 ;
215 [label="entropy = 0.6\nsamples = 7\nvalue = [6, 1]"] ;
214 -> 215 ;
216 [label="entropy = 1.0\nsamples = 12\nvalue = [5, 7]"] ;
214 -> 216 ;
217 [label="Age <= 28.5\nentropy = 0.9\nsamples = 29\nvalue = [9, 20]"] ;
201 -> 217 ;
218 [label="Age <= 27.5\nentropy = 0.9\nsamples = 24\nvalue = [7, 17]"] ;
217 -> 218 ;
219 [label="entropy = 0.9\nsamples = 9\nvalue = [3, 6]"] ;
218 -> 219 ;
220 [label="entropy = 0.8\nsamples = 15\nvalue = [4, 11]"] ;
218 -> 220 ;
221 [label="entropy = 1.0\nsamples = 5\nvalue = [2, 3]"] ;
217 -> 221 ;
222 [label="Age <= 30.5\nentropy = 1.0\nsamples = 14\nvalue = [8, 6]"] ;
200 -> 222 ;
223 [label="entropy = 1.0\nsamples = 9\nvalue = [5, 4]"] ;
222 -> 223 ;
224 [label="entropy = 1.0\nsamples = 5\nvalue = [3, 2]"] ;
222 -> 224 ;
225 [label="Age <= 32.5\nentropy = 0.8\nsamples = 19\nvalue = [5, 14]"] ;
199 -> 225 ;
226 [label="entropy = 0.7\nsamples = 10\nvalue = [2, 8]"] ;
225 -> 226 ;
227 [label="Age <= 33.5\nentropy = 0.9\nsamples = 9\nvalue = [3, 6]"] ;
225 -> 227 ;
228 [label="entropy = 0.9\nsamples = 6\nvalue = [2, 4]"] ;
227 -> 228 ;
229 [label="entropy = 0.9\nsamples = 3\nvalue = [1, 2]"] ;
227 -> 229 ;
230 [label="Age <= 35.5\nentropy = 1.0\nsamples = 34\nvalue = [18, 16]"] ;
198 -> 230 ;
231 [label="entropy = 0.8\nsamples = 8\nvalue = [6, 2]"] ;
230 -> 231 ;
232 [label="Age <= 36.5\nentropy = 1.0\nsamples = 26\nvalue = [12, 14]"] ;
230 -> 232 ;
233 [label="entropy = 0.9\nsamples = 9\nvalue = [3, 6]"] ;
232 -> 233 ;
234 [label="Age <= 37.5\nentropy = 1.0\nsamples = 17\nvalue = [9, 8]"] ;
232 -> 234 ;
235 [label="entropy = 1.0\nsamples = 11\nvalue = [6, 5]"] ;
234 -> 235 ;
236 [label="entropy = 1.0\nsamples = 6\nvalue = [3, 3]"] ;
234 -> 236 ;
237 [label="Age <= 40.5\nentropy = 0.9\nsamples = 21\nvalue = [6, 15]"] ;
197 -> 237 ;
238 [label="Age <= 39.5\nentropy = 0.5\nsamples = 10\nvalue = [1, 9]"] ;
237 -> 238 ;
239 [label="entropy = 0.7\nsamples = 5\nvalue = [1, 4]"] ;
238 -> 239 ;
240 [label="entropy = 0.0\nsamples = 5\nvalue = [0, 5]"] ;
238 -> 240 ;
241 [label="Age <= 41.5\nentropy = 1.0\nsamples = 11\nvalue = [5, 6]"] ;
237 -> 241 ;
242 [label="entropy = 1.0\nsamples = 7\nvalue = [4, 3]"] ;
241 -> 242 ;
243 [label="entropy = 0.8\nsamples = 4\nvalue = [1, 3]"] ;
241 -> 243 ;
244 [label="Age <= 55.5\nentropy = 1.0\nsamples = 74\nvalue = [37, 37]"] ;
92 -> 244 ;
245 [label="Age <= 52.5\nentropy = 1.0\nsamples = 53\nvalue = [29, 24]"] ;
244 -> 245 ;
246 [label="Age <= 43.5\nentropy = 1.0\nsamples = 48\nvalue = [24, 24]"] ;
245 -> 246 ;
247 [label="Destination_TRAPPIST-1e <= 0.5\nentropy = 0.8\nsamples = 4\nvalue = [3, 1]"] ;
246 -> 247 ;
248 [label="entropy = 0.0\nsamples = 2\nvalue = [2, 0]"] ;
247 -> 248 ;
249 [label="entropy = 1.0\nsamples = 2\nvalue = [1, 1]"] ;
247 -> 249 ;
250 [label="Age <= 50.5\nentropy = 1.0\nsamples = 44\nvalue = [21, 23]"] ;
246 -> 250 ;
251 [label="Destination_PSO J318.5-22 <= 0.5\nentropy = 1.0\nsamples = 36\nvalue = [16, 20]"] ;
250 -> 251 ;
252 [label="Age <= 46.5\nentropy = 1.0\nsamples = 24\nvalue = [10, 14]"] ;
251 -> 252 ;
253 [label="Age <= 44.5\nentropy = 1.0\nsamples = 13\nvalue = [6, 7]"] ;
252 -> 253 ;
254 [label="entropy = 1.0\nsamples = 6\nvalue = [3, 3]"] ;
253 -> 254 ;
255 [label="Age <= 45.5\nentropy = 1.0\nsamples = 7\nvalue = [3, 4]"] ;
253 -> 255 ;
256 [label="entropy = 0.0\nsamples = 1\nvalue = [0, 1]"] ;
255 -> 256 ;
257 [label="entropy = 1.0\nsamples = 6\nvalue = [3, 3]"] ;
255 -> 257 ;
258 [label="Age <= 48.0\nentropy = 0.9\nsamples = 11\nvalue = [4, 7]"] ;
252 -> 258 ;
259 [label="entropy = 0.7\nsamples = 5\nvalue = [1, 4]"] ;
258 -> 259 ;
260 [label="Age <= 49.5\nentropy = 1.0\nsamples = 6\nvalue = [3, 3]"] ;
258 -> 260 ;
261 [label="entropy = 1.0\nsamples = 2\nvalue = [1, 1]"] ;
260 -> 261 ;
262 [label="entropy = 1.0\nsamples = 4\nvalue = [2, 2]"] ;
260 -> 262 ;
263 [label="Age <= 47.5\nentropy = 1.0\nsamples = 12\nvalue = [6, 6]"] ;
251 -> 263 ;
264 [label="Age <= 46.5\nentropy = 1.0\nsamples = 7\nvalue = [4, 3]"] ;
263 -> 264 ;
265 [label="Age <= 44.5\nentropy = 1.0\nsamples = 6\nvalue = [3, 3]"] ;
264 -> 265 ;
266 [label="entropy = 1.0\nsamples = 2\nvalue = [1, 1]"] ;
265 -> 266 ;
267 [label="Age <= 45.5\nentropy = 1.0\nsamples = 4\nvalue = [2, 2]"] ;
265 -> 267 ;
268 [label="entropy = 1.0\nsamples = 2\nvalue = [1, 1]"] ;
267 -> 268 ;
269 [label="entropy = 1.0\nsamples = 2\nvalue = [1, 1]"] ;
267 -> 269 ;
270 [label="entropy = 0.0\nsamples = 1\nvalue = [1, 0]"] ;
264 -> 270 ;
271 [label="Age <= 48.5\nentropy = 1.0\nsamples = 5\nvalue = [2, 3]"] ;
263 -> 271 ;
272 [label="entropy = 0.0\nsamples = 1\nvalue = [0, 1]"] ;
271 -> 272 ;
273 [label="entropy = 1.0\nsamples = 4\nvalue = [2, 2]"] ;
271 -> 273 ;
274 [label="Destination_TRAPPIST-1e <= 0.5\nentropy = 1.0\nsamples = 8\nvalue = [5, 3]"] ;
250 -> 274 ;
275 [label="Age <= 51.5\nentropy = 0.9\nsamples = 3\nvalue = [1, 2]"] ;
274 -> 275 ;
276 [label="entropy = 0.0\nsamples = 1\nvalue = [0, 1]"] ;
275 -> 276 ;
277 [label="entropy = 1.0\nsamples = 2\nvalue = [1, 1]"] ;
275 -> 277 ;
278 [label="Age <= 51.5\nentropy = 0.7\nsamples = 5\nvalue = [4, 1]"] ;
274 -> 278 ;
279 [label="entropy = 0.0\nsamples = 2\nvalue = [2, 0]"] ;
278 -> 279 ;
280 [label="entropy = 0.9\nsamples = 3\nvalue = [2, 1]"] ;
278 -> 280 ;
281 [label="entropy = 0.0\nsamples = 5\nvalue = [5, 0]"] ;
245 -> 281 ;
282 [label="Age <= 64.5\nentropy = 1.0\nsamples = 21\nvalue = [8, 13]"] ;
244 -> 282 ;
283 [label="Age <= 62.0\nentropy = 0.9\nsamples = 18\nvalue = [6, 12]"] ;
282 -> 283 ;
284 [label="Age <= 56.5\nentropy = 1.0\nsamples = 12\nvalue = [5, 7]"] ;
283 -> 284 ;
285 [label="entropy = 0.0\nsamples = 1\nvalue = [0, 1]"] ;
284 -> 285 ;
286 [label="Age <= 58.0\nentropy = 1.0\nsamples = 11\nvalue = [5, 6]"] ;
284 -> 286 ;
287 [label="Destination_PSO J318.5-22 <= 0.5\nentropy = 0.9\nsamples = 3\nvalue = [1, 2]"] ;
286 -> 287 ;
288 [label="entropy = 1.0\nsamples = 2\nvalue = [1, 1]"] ;
287 -> 288 ;
289 [label="entropy = 0.0\nsamples = 1\nvalue = [0, 1]"] ;
287 -> 289 ;
290 [label="Age <= 60.5\nentropy = 1.0\nsamples = 8\nvalue = [4, 4]"] ;
286 -> 290 ;
291 [label="Destination_TRAPPIST-1e <= 0.5\nentropy = 0.9\nsamples = 3\nvalue = [2, 1]"] ;
290 -> 291 ;
292 [label="entropy = 0.0\nsamples = 1\nvalue = [1, 0]"] ;
291 -> 292 ;
293 [label="Age <= 59.5\nentropy = 1.0\nsamples = 2\nvalue = [1, 1]"] ;
291 -> 293 ;
294 [label="entropy = 0.0\nsamples = 1\nvalue = [0, 1]"] ;
293 -> 294 ;
295 [label="entropy = 0.0\nsamples = 1\nvalue = [1, 0]"] ;
293 -> 295 ;
296 [label="Destination_TRAPPIST-1e <= 0.5\nentropy = 1.0\nsamples = 5\nvalue = [2, 3]"] ;
290 -> 296 ;
297 [label="entropy = 1.0\nsamples = 2\nvalue = [1, 1]"] ;
296 -> 297 ;
298 [label="entropy = 0.9\nsamples = 3\nvalue = [1, 2]"] ;
296 -> 298 ;
299 [label="Age <= 63.5\nentropy = 0.7\nsamples = 6\nvalue = [1, 5]"] ;
283 -> 299 ;
300 [label="entropy = 0.0\nsamples = 2\nvalue = [0, 2]"] ;
299 -> 300 ;
301 [label="entropy = 0.8\nsamples = 4\nvalue = [1, 3]"] ;
299 -> 301 ;
302 [label="Age <= 70.0\nentropy = 0.9\nsamples = 3\nvalue = [2, 1]"] ;
282 -> 302 ;
303 [label="entropy = 0.0\nsamples = 2\nvalue = [2, 0]"] ;
302 -> 303 ;
304 [label="entropy = 0.0\nsamples = 1\nvalue = [0, 1]"] ;
302 -> 304 ;
305 [label="Age <= 37.0\nentropy = 0.7\nsamples = 118\nvalue = [25, 93]"] ;
91 -> 305 ;
306 [label="Age <= 14.5\nentropy = 0.7\nsamples = 103\nvalue = [18, 85]"] ;
305 -> 306 ;
307 [label="Age <= 0.5\nentropy = 0.9\nsamples = 39\nvalue = [12, 27]"] ;
306 -> 307 ;
308 [label="entropy = 0.5\nsamples = 8\nvalue = [1, 7]"] ;
307 -> 308 ;
309 [label="Age <= 2.5\nentropy = 0.9\nsamples = 31\nvalue = [11, 20]"] ;
307 -> 309 ;
310 [label="Age <= 1.5\nentropy = 1.0\nsamples = 11\nvalue = [6, 5]"] ;
309 -> 310 ;
311 [label="entropy = 1.0\nsamples = 4\nvalue = [2, 2]"] ;
310 -> 311 ;
312 [label="entropy = 1.0\nsamples = 7\nvalue = [4, 3]"] ;
310 -> 312 ;
313 [label="Age <= 11.5\nentropy = 0.8\nsamples = 20\nvalue = [5, 15]"] ;
309 -> 313 ;
314 [label="Age <= 7.5\nentropy = 0.7\nsamples = 16\nvalue = [3, 13]"] ;
313 -> 314 ;
315 [label="Age <= 6.0\nentropy = 0.8\nsamples = 11\nvalue = [3, 8]"] ;
314 -> 315 ;
316 [label="Age <= 3.5\nentropy = 0.5\nsamples = 8\nvalue = [1, 7]"] ;
315 -> 316 ;
317 [label="entropy = 0.9\nsamples = 3\nvalue = [1, 2]"] ;
316 -> 317 ;
318 [label="entropy = 0.0\nsamples = 5\nvalue = [0, 5]"] ;
316 -> 318 ;
319 [label="entropy = 0.9\nsamples = 3\nvalue = [2, 1]"] ;
315 -> 319 ;
320 [label="entropy = 0.0\nsamples = 5\nvalue = [0, 5]"] ;
314 -> 320 ;
321 [label="Age <= 13.0\nentropy = 1.0\nsamples = 4\nvalue = [2, 2]"] ;
313 -> 321 ;
322 [label="entropy = 0.0\nsamples = 1\nvalue = [1, 0]"] ;
321 -> 322 ;
323 [label="entropy = 0.9\nsamples = 3\nvalue = [1, 2]"] ;
321 -> 323 ;
324 [label="Age <= 30.5\nentropy = 0.4\nsamples = 64\nvalue = [6, 58]"] ;
306 -> 324 ;
325 [label="Age <= 28.5\nentropy = 0.5\nsamples = 54\nvalue = [6, 48]"] ;
324 -> 325 ;
326 [label="Age <= 20.5\nentropy = 0.4\nsamples = 52\nvalue = [4, 48]"] ;
325 -> 326 ;
327 [label="Age <= 18.5\nentropy = 0.5\nsamples = 25\nvalue = [3, 22]"] ;
326 -> 327 ;
328 [label="Age <= 15.5\nentropy = 0.3\nsamples = 19\nvalue = [1, 18]"] ;
327 -> 328 ;
329 [label="entropy = 0.5\nsamples = 10\nvalue = [1, 9]"] ;
328 -> 329 ;
330 [label="entropy = 0.0\nsamples = 9\nvalue = [0, 9]"] ;
328 -> 330 ;
331 [label="Age <= 19.5\nentropy = 0.9\nsamples = 6\nvalue = [2, 4]"] ;
327 -> 331 ;
332 [label="entropy = 0.9\nsamples = 3\nvalue = [1, 2]"] ;
331 -> 332 ;
333 [label="entropy = 0.9\nsamples = 3\nvalue = [1, 2]"] ;
331 -> 333 ;
334 [label="Age <= 24.5\nentropy = 0.2\nsamples = 27\nvalue = [1, 26]"] ;
326 -> 334 ;
335 [label="entropy = 0.0\nsamples = 20\nvalue = [0, 20]"] ;
334 -> 335 ;
336 [label="Age <= 26.0\nentropy = 0.6\nsamples = 7\nvalue = [1, 6]"] ;
334 -> 336 ;
337 [label="entropy = 0.9\nsamples = 3\nvalue = [1, 2]"] ;
336 -> 337 ;
338 [label="entropy = 0.0\nsamples = 4\nvalue = [0, 4]"] ;
336 -> 338 ;
339 [label="entropy = 0.0\nsamples = 2\nvalue = [2, 0]"] ;
325 -> 339 ;
340 [label="entropy = 0.0\nsamples = 10\nvalue = [0, 10]"] ;
324 -> 340 ;
341 [label="Age <= 52.0\nentropy = 1.0\nsamples = 15\nvalue = [7, 8]"] ;
305 -> 341 ;
342 [label="Age <= 42.5\nentropy = 1.0\nsamples = 12\nvalue = [7, 5]"] ;
341 -> 342 ;
343 [label="Age <= 40.0\nentropy = 0.9\nsamples = 6\nvalue = [2, 4]"] ;
342 -> 343 ;
344 [label="Age <= 38.5\nentropy = 1.0\nsamples = 4\nvalue = [2, 2]"] ;
343 -> 344 ;
345 [label="entropy = 1.0\nsamples = 2\nvalue = [1, 1]"] ;
344 -> 345 ;
346 [label="entropy = 1.0\nsamples = 2\nvalue = [1, 1]"] ;
344 -> 346 ;
347 [label="entropy = 0.0\nsamples = 2\nvalue = [0, 2]"] ;
343 -> 347 ;
348 [label="Age <= 48.0\nentropy = 0.7\nsamples = 6\nvalue = [5, 1]"] ;
342 -> 348 ;
349 [label="entropy = 0.0\nsamples = 4\nvalue = [4, 0]"] ;
348 -> 349 ;
350 [label="entropy = 1.0\nsamples = 2\nvalue = [1, 1]"] ;
348 -> 350 ;
351 [label="entropy = 0.0\nsamples = 3\nvalue = [0, 3]"] ;
341 -> 351 ;
352 [label="Spa <= 543.0\nentropy = 0.9\nsamples = 3211\nvalue = [2141, 1070]"] ;
0 -> 352 [labeldistance=2.5, labelangle=-45, headlabel="False"] ;
353 [label="RoomService <= 309.5\nentropy = 1.0\nsamples = 2530\nvalue = [1552, 978]"] ;
352 -> 353 ;
354 [label="VRDeck <= 328.5\nentropy = 1.0\nsamples = 1736\nvalue = [901, 835]"] ;
353 -> 354 ;
355 [label="FoodCourt <= 1738.5\nentropy = 1.0\nsamples = 1177\nvalue = [471, 706]"] ;
354 -> 355 ;
356 [label="Spa <= 135.0\nentropy = 1.0\nsamples = 1057\nvalue = [469, 588]"] ;
355 -> 356 ;
357 [label="ShoppingMall <= 1248.0\nentropy = 1.0\nsamples = 901\nvalue = [355, 546]"] ;
356 -> 357 ;
358 [label="VRDeck <= 99.5\nentropy = 1.0\nsamples = 822\nvalue = [349, 473]"] ;
357 -> 358 ;
359 [label="Age <= 3.5\nentropy = 1.0\nsamples = 757\nvalue = [306, 451]"] ;
358 -> 359 ;
360 [label="HomePlanet_Earth <= 0.5\nentropy = 0.8\nsamples = 109\nvalue = [28, 81]"] ;
359 -> 360 ;
361 [label="entropy = 0.0\nsamples = 36\nvalue = [0, 36]"] ;
360 -> 361 ;
362 [label="Destination_TRAPPIST-1e <= 0.5\nentropy = 1.0\nsamples = 73\nvalue = [28, 45]"] ;
360 -> 362 ;
363 [label="Destination_PSO J318.5-22 <= 0.5\nentropy = 0.8\nsamples = 23\nvalue = [5, 18]"] ;
362 -> 363 ;
364 [label="Age <= 0.5\nentropy = 0.8\nsamples = 20\nvalue = [5, 15]"] ;
363 -> 364 ;
365 [label="entropy = 0.7\nsamples = 12\nvalue = [2, 10]"] ;
364 -> 365 ;
366 [label="Age <= 1.5\nentropy = 1.0\nsamples = 8\nvalue = [3, 5]"] ;
364 -> 366 ;
367 [label="entropy = 0.9\nsamples = 3\nvalue = [1, 2]"] ;
366 -> 367 ;
368 [label="Age <= 2.5\nentropy = 1.0\nsamples = 5\nvalue = [2, 3]"] ;
366 -> 368 ;
369 [label="entropy = 1.0\nsamples = 2\nvalue = [1, 1]"] ;
368 -> 369 ;
370 [label="entropy = 0.9\nsamples = 3\nvalue = [1, 2]"] ;
368 -> 370 ;
371 [label="entropy = 0.0\nsamples = 3\nvalue = [0, 3]"] ;
363 -> 371 ;
372 [label="Age <= 1.5\nentropy = 1.0\nsamples = 50\nvalue = [23, 27]"] ;
362 -> 372 ;
373 [label="Age <= 0.5\nentropy = 1.0\nsamples = 34\nvalue = [15, 19]"] ;
372 -> 373 ;
374 [label="entropy = 1.0\nsamples = 25\nvalue = [11, 14]"] ;
373 -> 374 ;
375 [label="entropy = 1.0\nsamples = 9\nvalue = [4, 5]"] ;
373 -> 375 ;
376 [label="Age <= 2.5\nentropy = 1.0\nsamples = 16\nvalue = [8, 8]"] ;
372 -> 376 ;
377 [label="entropy = 1.0\nsamples = 7\nvalue = [4, 3]"] ;
376 -> 377 ;
378 [label="entropy = 1.0\nsamples = 9\nvalue = [4, 5]"] ;
376 -> 378 ;
379 [label="ShoppingMall <= 658.0\nentropy = 1.0\nsamples = 648\nvalue = [278, 370]"] ;
359 -> 379 ;
380 [label="ShoppingMall <= 652.5\nentropy = 1.0\nsamples = 479\nvalue = [221, 258]"] ;
379 -> 380 ;
381 [label="HomePlanet_Europa <= 0.5\nentropy = 1.0\nsamples = 475\nvalue = [217, 258]"] ;
380 -> 381 ;
382 [label="FoodCourt <= 84.0\nentropy = 1.0\nsamples = 429\nvalue = [203, 226]"] ;
381 -> 382 ;
383 [label="Age <= 10.5\nentropy = 1.0\nsamples = 194\nvalue = [104, 90]"] ;
382 -> 383 ;
384 [label="HomePlanet_Earth <= 0.5\nentropy = 1.0\nsamples = 86\nvalue = [34, 52]"] ;
383 -> 384 ;
385 [label="entropy = 0.0\nsamples = 16\nvalue = [0, 16]"] ;
384 -> 385 ;
386 [label="Age <= 4.5\nentropy = 1.0\nsamples = 70\nvalue = [34, 36]"] ;
384 -> 386 ;
387 [label="Destination_55 Cancri e <= 0.5\nentropy = 0.9\nsamples = 14\nvalue = [9, 5]"] ;
386 -> 387 ;
388 [label="entropy = 0.9\nsamples = 10\nvalue = [7, 3]"] ;
387 -> 388 ;
389 [label="entropy = 1.0\nsamples = 4\nvalue = [2, 2]"] ;
387 -> 389 ;
390 [label="Age <= 5.5\nentropy = 1.0\nsamples = 56\nvalue = [25, 31]"] ;
386 -> 390 ;
391 [label="Destination_TRAPPIST-1e <= 0.5\nentropy = 0.7\nsamples = 5\nvalue = [1, 4]"] ;
390 -> 391 ;
392 [label="entropy = 0.0\nsamples = 3\nvalue = [0, 3]"] ;
391 -> 392 ;
393 [label="entropy = 1.0\nsamples = 2\nvalue = [1, 1]"] ;
391 -> 393 ;
394 [label="Destination_PSO J318.5-22 <= 0.5\nentropy = 1.0\nsamples = 51\nvalue = [24, 27]"] ;
390 -> 394 ;
395 [label="Age <= 9.5\nentropy = 1.0\nsamples = 48\nvalue = [23, 25]"] ;
394 -> 395 ;
396 [label="Age <= 7.5\nentropy = 1.0\nsamples = 41\nvalue = [19, 22]"] ;
395 -> 396 ;
397 [label="Destination_55 Cancri e <= 0.5\nentropy = 1.0\nsamples = 22\nvalue = [11, 11]"] ;
396 -> 397 ;
398 [label="Age <= 6.5\nentropy = 1.0\nsamples = 18\nvalue = [8, 10]"] ;
397 -> 398 ;
399 [label="entropy = 0.9\nsamples = 9\nvalue = [3, 6]"] ;
398 -> 399 ;
400 [label="entropy = 1.0\nsamples = 9\nvalue = [5, 4]"] ;
398 -> 400 ;
401 [label="Age <= 6.5\nentropy = 0.8\nsamples = 4\nvalue = [3, 1]"] ;
397 -> 401 ;
402 [label="entropy = 0.0\nsamples = 2\nvalue = [2, 0]"] ;
401 -> 402 ;
403 [label="entropy = 1.0\nsamples = 2\nvalue = [1, 1]"] ;
401 -> 403 ;
404 [label="Destination_55 Cancri e <= 0.5\nentropy = 1.0\nsamples = 19\nvalue = [8, 11]"] ;
396 -> 404 ;
405 [label="Age <= 8.5\nentropy = 1.0\nsamples = 12\nvalue = [6, 6]"] ;
404 -> 405 ;
406 [label="entropy = 0.9\nsamples = 6\nvalue = [4, 2]"] ;
405 -> 406 ;
407 [label="entropy = 0.9\nsamples = 6\nvalue = [2, 4]"] ;
405 -> 407 ;
408 [label="Age <= 8.5\nentropy = 0.9\nsamples = 7\nvalue = [2, 5]"] ;
404 -> 408 ;
409 [label="entropy = 0.7\nsamples = 6\nvalue = [1, 5]"] ;
408 -> 409 ;
410 [label="entropy = 0.0\nsamples = 1\nvalue = [1, 0]"] ;
408 -> 410 ;
411 [label="Destination_55 Cancri e <= 0.5\nentropy = 1.0\nsamples = 7\nvalue = [4, 3]"] ;
395 -> 411 ;
412 [label="entropy = 1.0\nsamples = 4\nvalue = [2, 2]"] ;
411 -> 412 ;
413 [label="entropy = 0.9\nsamples = 3\nvalue = [2, 1]"] ;
411 -> 413 ;
414 [label="Age <= 6.5\nentropy = 0.9\nsamples = 3\nvalue = [1, 2]"] ;
394 -> 414 ;
415 [label="entropy = 0.0\nsamples = 1\nvalue = [1, 0]"] ;
414 -> 415 ;
416 [label="entropy = 0.0\nsamples = 2\nvalue = [0, 2]"] ;
414 -> 416 ;
417 [label="Spa <= 0.5\nentropy = 0.9\nsamples = 108\nvalue = [70, 38]"] ;
383 -> 417 ;
418 [label="RoomService <= 146.5\nentropy = 0.8\nsamples = 86\nvalue = [63, 23]"] ;
417 -> 418 ;
419 [label="ShoppingMall <= 640.0\nentropy = 0.9\nsamples = 77\nvalue = [54, 23]"] ;
418 -> 419 ;
420 [label="FoodCourt <= 10.0\nentropy = 0.9\nsamples = 75\nvalue = [54, 21]"] ;
419 -> 420 ;
421 [label="HomePlanet_Earth <= 0.5\nentropy = 0.9\nsamples = 69\nvalue = [48, 21]"] ;
420 -> 421 ;
422 [label="VIP_False <= 0.5\nentropy = 0.6\nsamples = 20\nvalue = [17, 3]"] ;
421 -> 422 ;
423 [label="entropy = 0.0\nsamples = 1\nvalue = [0, 1]"] ;
422 -> 423 ;
424 [label="Age <= 12.0\nentropy = 0.5\nsamples = 19\nvalue = [17, 2]"] ;
422 -> 424 ;
425 [label="entropy = 0.0\nsamples = 1\nvalue = [0, 1]"] ;
424 -> 425 ;
426 [label="Age <= 20.5\nentropy = 0.3\nsamples = 18\nvalue = [17, 1]"] ;
424 -> 426 ;
427 [label="Age <= 19.5\nentropy = 0.5\nsamples = 8\nvalue = [7, 1]"] ;
426 -> 427 ;
428 [label="entropy = 0.0\nsamples = 6\nvalue = [6, 0]"] ;
427 -> 428 ;
429 [label="entropy = 1.0\nsamples = 2\nvalue = [1, 1]"] ;
427 -> 429 ;
430 [label="entropy = 0.0\nsamples = 10\nvalue = [10, 0]"] ;
426 -> 430 ;
431 [label="Age <= 11.5\nentropy = 0.9\nsamples = 49\nvalue = [31, 18]"] ;
421 -> 431 ;
432 [label="Destination_55 Cancri e <= 0.5\nentropy = 0.7\nsamples = 16\nvalue = [13, 3]"] ;
431 -> 432 ;
433 [label="Destination_PSO J318.5-22 <= 0.5\nentropy = 0.4\nsamples = 13\nvalue = [12, 1]"] ;
432 -> 433 ;
434 [label="entropy = 0.4\nsamples = 12\nvalue = [11, 1]"] ;
433 -> 434 ;
435 [label="entropy = 0.0\nsamples = 1\nvalue = [1, 0]"] ;
433 -> 435 ;
436 [label="entropy = 0.9\nsamples = 3\nvalue = [1, 2]"] ;
432 -> 436 ;
437 [label="Age <= 41.5\nentropy = 1.0\nsamples = 33\nvalue = [18, 15]"] ;
431 -> 437 ;
438 [label="VRDeck <= 72.0\nentropy = 1.0\nsamples = 30\nvalue = [15, 15]"] ;
437 -> 438 ;
439 [label="Age <= 15.5\nentropy = 1.0\nsamples = 28\nvalue = [15, 13]"] ;
438 -> 439 ;
440 [label="Destination_PSO J318.5-22 <= 0.5\nentropy = 0.9\nsamples = 12\nvalue = [4, 8]"] ;
439 -> 440 ;
441 [label="Destination_TRAPPIST-1e <= 0.5\nentropy = 0.9\nsamples = 11\nvalue = [4, 7]"] ;
440 -> 441 ;
442 [label="entropy = 0.9\nsamples = 3\nvalue = [1, 2]"] ;
441 -> 442 ;
443 [label="entropy = 1.0\nsamples = 8\nvalue = [3, 5]"] ;
441 -> 443 ;
444 [label="entropy = 0.0\nsamples = 1\nvalue = [0, 1]"] ;
440 -> 444 ;
445 [label="Age <= 38.0\nentropy = 0.9\nsamples = 16\nvalue = [11, 5]"] ;
439 -> 445 ;
446 [label="RoomService <= 101.5\nentropy = 0.8\nsamples = 15\nvalue = [11, 4]"] ;
445 -> 446 ;
447 [label="RoomService <= 76.0\nentropy = 0.9\nsamples = 13\nvalue = [9, 4]"] ;
446 -> 447 ;
448 [label="ShoppingMall <= 629.5\nentropy = 0.8\nsamples = 12\nvalue = [9, 3]"] ;
447 -> 448 ;
449 [label="ShoppingMall <= 234.5\nentropy = 0.7\nsamples = 11\nvalue = [9, 2]"] ;
448 -> 449 ;
450 [label="Age <= 19.5\nentropy = 0.9\nsamples = 7\nvalue = [5, 2]"] ;
449 -> 450 ;
451 [label="entropy = 1.0\nsamples = 2\nvalue = [1, 1]"] ;
450 -> 451 ;
452 [label="Age <= 34.5\nentropy = 0.7\nsamples = 5\nvalue = [4, 1]"] ;
450 -> 452 ;
453 [label="entropy = 0.0\nsamples = 3\nvalue = [3, 0]"] ;
452 -> 453 ;
454 [label="entropy = 1.0\nsamples = 2\nvalue = [1, 1]"] ;
452 -> 454 ;
455 [label="entropy = 0.0\nsamples = 4\nvalue = [4, 0]"] ;
449 -> 455 ;
456 [label="entropy = 0.0\nsamples = 1\nvalue = [0, 1]"] ;
448 -> 456 ;
457 [label="entropy = 0.0\nsamples = 1\nvalue = [0, 1]"] ;
447 -> 457 ;
458 [label="entropy = 0.0\nsamples = 2\nvalue = [2, 0]"] ;
446 -> 458 ;
459 [label="entropy = 0.0\nsamples = 1\nvalue = [0, 1]"] ;
445 -> 459 ;
460 [label="entropy = 0.0\nsamples = 2\nvalue = [0, 2]"] ;
438 -> 460 ;
461 [label="entropy = 0.0\nsamples = 3\nvalue = [3, 0]"] ;
437 -> 461 ;
462 [label="entropy = 0.0\nsamples = 6\nvalue = [6, 0]"] ;
420 -> 462 ;
463 [label="entropy = 0.0\nsamples = 2\nvalue = [0, 2]"] ;
419 -> 463 ;
464 [label="entropy = 0.0\nsamples = 9\nvalue = [9, 0]"] ;
418 -> 464 ;
465 [label="Age <= 34.5\nentropy = 0.9\nsamples = 22\nvalue = [7, 15]"] ;
417 -> 465 ;
466 [label="FoodCourt <= 14.0\nentropy = 1.0\nsamples = 16\nvalue = [7, 9]"] ;
465 -> 466 ;
467 [label="Spa <= 14.0\nentropy = 0.9\nsamples = 9\nvalue = [6, 3]"] ;
466 -> 467 ;
468 [label="FoodCourt <= 10.0\nentropy = 0.8\nsamples = 4\nvalue = [1, 3]"] ;
467 -> 468 ;
469 [label="entropy = 0.0\nsamples = 3\nvalue = [0, 3]"] ;
468 -> 469 ;
470 [label="entropy = 0.0\nsamples = 1\nvalue = [1, 0]"] ;
468 -> 470 ;
471 [label="entropy = 0.0\nsamples = 5\nvalue = [5, 0]"] ;
467 -> 471 ;
472 [label="FoodCourt <= 73.5\nentropy = 0.6\nsamples = 7\nvalue = [1, 6]"] ;
466 -> 472 ;
473 [label="entropy = 0.0\nsamples = 6\nvalue = [0, 6]"] ;
472 -> 473 ;
474 [label="entropy = 0.0\nsamples = 1\nvalue = [1, 0]"] ;
472 -> 474 ;
475 [label="entropy = 0.0\nsamples = 6\nvalue = [0, 6]"] ;
465 -> 475 ;
476 [label="Spa <= 14.0\nentropy = 1.0\nsamples = 235\nvalue = [99, 136]"] ;
382 -> 476 ;
477 [label="ShoppingMall <= 85.0\nentropy = 1.0\nsamples = 193\nvalue = [73, 120]"] ;
476 -> 477 ;
478 [label="Age <= 23.5\nentropy = 1.0\nsamples = 146\nvalue = [62, 84]"] ;
477 -> 478 ;
479 [label="ShoppingMall <= 11.5\nentropy = 0.9\nsamples = 55\nvalue = [17, 38]"] ;
478 -> 479 ;
480 [label="RoomService <= 148.0\nentropy = 0.7\nsamples = 44\nvalue = [9, 35]"] ;
479 -> 480 ;
481 [label="VRDeck <= 1.5\nentropy = 0.7\nsamples = 42\nvalue = [7, 35]"] ;
480 -> 481 ;
482 [label="Destination_55 Cancri e <= 0.5\nentropy = 0.8\nsamples = 32\nvalue = [7, 25]"] ;
481 -> 482 ;
483 [label="VRDeck <= 0.5\nentropy = 0.9\nsamples = 25\nvalue = [7, 18]"] ;
482 -> 483 ;
484 [label="Age <= 13.5\nentropy = 0.8\nsamples = 24\nvalue = [6, 18]"] ;
483 -> 484 ;
485 [label="entropy = 0.0\nsamples = 1\nvalue = [1, 0]"] ;
484 -> 485 ;
486 [label="RoomService <= 103.5\nentropy = 0.8\nsamples = 23\nvalue = [5, 18]"] ;
484 -> 486 ;
487 [label="RoomService <= 2.5\nentropy = 0.7\nsamples = 22\nvalue = [4, 18]"] ;
486 -> 487 ;
488 [label="Age <= 20.5\nentropy = 0.9\nsamples = 14\nvalue = [4, 10]"] ;
487 -> 488 ;
489 [label="Destination_PSO J318.5-22 <= 0.5\nentropy = 1.0\nsamples = 10\nvalue = [4, 6]"] ;
488 -> 489 ;
490 [label="Age <= 17.0\nentropy = 0.8\nsamples = 8\nvalue = [2, 6]"] ;
489 -> 490 ;
491 [label="entropy = 0.0\nsamples = 3\nvalue = [0, 3]"] ;
490 -> 491 ;
492 [label="FoodCourt <= 786.5\nentropy = 1.0\nsamples = 5\nvalue = [2, 3]"] ;
490 -> 492 ;
493 [label="entropy = 0.0\nsamples = 2\nvalue = [0, 2]"] ;
492 -> 493 ;
494 [label="FoodCourt <= 1036.5\nentropy = 0.9\nsamples = 3\nvalue = [2, 1]"] ;
492 -> 494 ;
495 [label="entropy = 0.0\nsamples = 2\nvalue = [2, 0]"] ;
494 -> 495 ;
496 [label="entropy = 0.0\nsamples = 1\nvalue = [0, 1]"] ;
494 -> 496 ;
497 [label="entropy = 0.0\nsamples = 2\nvalue = [2, 0]"] ;
489 -> 497 ;
498 [label="entropy = 0.0\nsamples = 4\nvalue = [0, 4]"] ;
488 -> 498 ;
499 [label="entropy = 0.0\nsamples = 8\nvalue = [0, 8]"] ;
487 -> 499 ;
500 [label="entropy = 0.0\nsamples = 1\nvalue = [1, 0]"] ;
486 -> 500 ;
501 [label="entropy = 0.0\nsamples = 1\nvalue = [1, 0]"] ;
483 -> 501 ;
502 [label="entropy = 0.0\nsamples = 7\nvalue = [0, 7]"] ;
482 -> 502 ;
503 [label="entropy = 0.0\nsamples = 10\nvalue = [0, 10]"] ;
481 -> 503 ;
504 [label="entropy = 0.0\nsamples = 2\nvalue = [2, 0]"] ;
480 -> 504 ;
505 [label="FoodCourt <= 816.0\nentropy = 0.8\nsamples = 11\nvalue = [8, 3]"] ;
479 -> 505 ;
506 [label="RoomService <= 29.0\nentropy = 1.0\nsamples = 6\nvalue = [3, 3]"] ;
505 -> 506 ;
507 [label="ShoppingMall <= 74.0\nentropy = 0.8\nsamples = 4\nvalue = [1, 3]"] ;
506 -> 507 ;
508 [label="entropy = 0.0\nsamples = 3\nvalue = [0, 3]"] ;
507 -> 508 ;
509 [label="entropy = 0.0\nsamples = 1\nvalue = [1, 0]"] ;
507 -> 509 ;
510 [label="entropy = 0.0\nsamples = 2\nvalue = [2, 0]"] ;
506 -> 510 ;
511 [label="entropy = 0.0\nsamples = 5\nvalue = [5, 0]"] ;
505 -> 511 ;
512 [label="VRDeck <= 69.0\nentropy = 1.0\nsamples = 91\nvalue = [45, 46]"] ;
478 -> 512 ;
513 [label="ShoppingMall <= 25.0\nentropy = 1.0\nsamples = 87\nvalue = [41, 46]"] ;
512 -> 513 ;
514 [label="ShoppingMall <= 14.5\nentropy = 1.0\nsamples = 78\nvalue = [39, 39]"] ;
513 -> 514 ;
515 [label="VRDeck <= 14.0\nentropy = 1.0\nsamples = 73\nvalue = [34, 39]"] ;
514 -> 515 ;
516 [label="VRDeck <= 3.0\nentropy = 1.0\nsamples = 63\nvalue = [27, 36]"] ;
515 -> 516 ;
517 [label="Age <= 58.5\nentropy = 1.0\nsamples = 52\nvalue = [25, 27]"] ;
516 -> 517 ;
518 [label="Age <= 43.5\nentropy = 1.0\nsamples = 50\nvalue = [25, 25]"] ;
517 -> 518 ;
519 [label="ShoppingMall <= 2.5\nentropy = 1.0\nsamples = 43\nvalue = [19, 24]"] ;
518 -> 519 ;
520 [label="RoomService <= 3.0\nentropy = 1.0\nsamples = 35\nvalue = [18, 17]"] ;
519 -> 520 ;
521 [label="Spa <= 0.5\nentropy = 1.0\nsamples = 21\nvalue = [8, 13]"] ;
520 -> 521 ;
522 [label="VRDeck <= 0.5\nentropy = 1.0\nsamples = 17\nvalue = [8, 9]"] ;
521 -> 522 ;
523 [label="Destination_PSO J318.5-22 <= 0.5\nentropy = 1.0\nsamples = 15\nvalue = [6, 9]"] ;
522 -> 523 ;
524 [label="Age <= 28.5\nentropy = 1.0\nsamples = 13\nvalue = [6, 7]"] ;
523 -> 524 ;
525 [label="ShoppingMall <= 0.5\nentropy = 0.9\nsamples = 7\nvalue = [2, 5]"] ;
524 -> 525 ;
526 [label="RoomService <= 1.5\nentropy = 0.7\nsamples = 6\nvalue = [1, 5]"] ;
525 -> 526 ;
527 [label="entropy = 0.0\nsamples = 4\nvalue = [0, 4]"] ;
526 -> 527 ;
528 [label="Age <= 26.0\nentropy = 1.0\nsamples = 2\nvalue = [1, 1]"] ;
526 -> 528 ;
529 [label="entropy = 0.0\nsamples = 1\nvalue = [1, 0]"] ;
528 -> 529 ;
530 [label="entropy = 0.0\nsamples = 1\nvalue = [0, 1]"] ;
528 -> 530 ;
531 [label="entropy = 0.0\nsamples = 1\nvalue = [1, 0]"] ;
525 -> 531 ;
532 [label="RoomService <= 1.0\nentropy = 0.9\nsamples = 6\nvalue = [4, 2]"] ;
524 -> 532 ;
533 [label="Age <= 37.0\nentropy = 0.7\nsamples = 5\nvalue = [4, 1]"] ;
532 -> 533 ;
534 [label="entropy = 0.0\nsamples = 3\nvalue = [3, 0]"] ;
533 -> 534 ;
535 [label="Destination_TRAPPIST-1e <= 0.5\nentropy = 1.0\nsamples = 2\nvalue = [1, 1]"] ;
533 -> 535 ;
536 [label="entropy = 0.0\nsamples = 1\nvalue = [1, 0]"] ;
535 -> 536 ;
537 [label="entropy = 0.0\nsamples = 1\nvalue = [0, 1]"] ;
535 -> 537 ;
538 [label="entropy = 0.0\nsamples = 1\nvalue = [0, 1]"] ;
532 -> 538 ;
539 [label="entropy = 0.0\nsamples = 2\nvalue = [0, 2]"] ;
523 -> 539 ;
540 [label="entropy = 0.0\nsamples = 2\nvalue = [2, 0]"] ;
522 -> 540 ;
541 [label="entropy = 0.0\nsamples = 4\nvalue = [0, 4]"] ;
521 -> 541 ;
542 [label="Age <= 28.0\nentropy = 0.9\nsamples = 14\nvalue = [10, 4]"] ;
520 -> 542 ;
543 [label="entropy = 0.0\nsamples = 5\nvalue = [5, 0]"] ;
542 -> 543 ;
544 [label="FoodCourt <= 709.0\nentropy = 1.0\nsamples = 9\nvalue = [5, 4]"] ;
542 -> 544 ;
545 [label="entropy = 0.0\nsamples = 2\nvalue = [0, 2]"] ;
544 -> 545 ;
546 [label="RoomService <= 165.5\nentropy = 0.9\nsamples = 7\nvalue = [5, 2]"] ;
544 -> 546 ;
547 [label="Age <= 40.0\nentropy = 0.7\nsamples = 6\nvalue = [5, 1]"] ;
546 -> 547 ;
548 [label="entropy = 0.0\nsamples = 4\nvalue = [4, 0]"] ;
547 -> 548 ;
549 [label="FoodCourt <= 765.0\nentropy = 1.0\nsamples = 2\nvalue = [1, 1]"] ;
547 -> 549 ;
550 [label="entropy = 0.0\nsamples = 1\nvalue = [1, 0]"] ;
549 -> 550 ;
551 [label="entropy = 0.0\nsamples = 1\nvalue = [0, 1]"] ;
549 -> 551 ;
552 [label="entropy = 0.0\nsamples = 1\nvalue = [0, 1]"] ;
546 -> 552 ;
553 [label="Age <= 25.0\nentropy = 0.5\nsamples = 8\nvalue = [1, 7]"] ;
519 -> 553 ;
554 [label="FoodCourt <= 723.0\nentropy = 0.9\nsamples = 3\nvalue = [1, 2]"] ;
553 -> 554 ;
555 [label="entropy = 0.0\nsamples = 2\nvalue = [0, 2]"] ;
554 -> 555 ;
556 [label="entropy = 0.0\nsamples = 1\nvalue = [1, 0]"] ;
554 -> 556 ;
557 [label="entropy = 0.0\nsamples = 5\nvalue = [0, 5]"] ;
553 -> 557 ;
558 [label="VRDeck <= 1.0\nentropy = 0.6\nsamples = 7\nvalue = [6, 1]"] ;
518 -> 558 ;
559 [label="entropy = 0.0\nsamples = 5\nvalue = [5, 0]"] ;
558 -> 559 ;
560 [label="FoodCourt <= 1204.5\nentropy = 1.0\nsamples = 2\nvalue = [1, 1]"] ;
558 -> 560 ;
561 [label="entropy = 0.0\nsamples = 1\nvalue = [0, 1]"] ;
560 -> 561 ;
562 [label="entropy = 0.0\nsamples = 1\nvalue = [1, 0]"] ;
560 -> 562 ;
563 [label="entropy = 0.0\nsamples = 2\nvalue = [0, 2]"] ;
517 -> 563 ;
564 [label="Age <= 51.0\nentropy = 0.7\nsamples = 11\nvalue = [2, 9]"] ;
516 -> 564 ;
565 [label="entropy = 0.0\nsamples = 8\nvalue = [0, 8]"] ;
564 -> 565 ;
566 [label="FoodCourt <= 688.5\nentropy = 0.9\nsamples = 3\nvalue = [2, 1]"] ;
564 -> 566 ;
567 [label="entropy = 0.0\nsamples = 1\nvalue = [0, 1]"] ;
566 -> 567 ;
568 [label="entropy = 0.0\nsamples = 2\nvalue = [2, 0]"] ;
566 -> 568 ;
569 [label="VRDeck <= 42.5\nentropy = 0.9\nsamples = 10\nvalue = [7, 3]"] ;
515 -> 569 ;
570 [label="entropy = 0.0\nsamples = 5\nvalue = [5, 0]"] ;
569 -> 570 ;
571 [label="Age <= 38.0\nentropy = 1.0\nsamples = 5\nvalue = [2, 3]"] ;
569 -> 571 ;
572 [label="ShoppingMall <= 0.5\nentropy = 0.9\nsamples = 3\nvalue = [2, 1]"] ;
571 -> 572 ;
573 [label="entropy = 0.0\nsamples = 2\nvalue = [2, 0]"] ;
572 -> 573 ;
574 [label="entropy = 0.0\nsamples = 1\nvalue = [0, 1]"] ;
572 -> 574 ;
575 [label="entropy = 0.0\nsamples = 2\nvalue = [0, 2]"] ;
571 -> 575 ;
576 [label="entropy = 0.0\nsamples = 5\nvalue = [5, 0]"] ;
514 -> 576 ;
577 [label="Age <= 33.0\nentropy = 0.8\nsamples = 9\nvalue = [2, 7]"] ;
513 -> 577 ;
578 [label="entropy = 0.0\nsamples = 5\nvalue = [0, 5]"] ;
577 -> 578 ;
579 [label="FoodCourt <= 1213.0\nentropy = 1.0\nsamples = 4\nvalue = [2, 2]"] ;
577 -> 579 ;
580 [label="entropy = 0.0\nsamples = 2\nvalue = [2, 0]"] ;
579 -> 580 ;
581 [label="entropy = 0.0\nsamples = 2\nvalue = [0, 2]"] ;
579 -> 581 ;
582 [label="entropy = 0.0\nsamples = 4\nvalue = [4, 0]"] ;
512 -> 582 ;
583 [label="Age <= 19.5\nentropy = 0.8\nsamples = 47\nvalue = [11, 36]"] ;
477 -> 583 ;
584 [label="Destination_TRAPPIST-1e <= 0.5\nentropy = 1.0\nsamples = 13\nvalue = [6, 7]"] ;
583 -> 584 ;
585 [label="entropy = 0.0\nsamples = 3\nvalue = [0, 3]"] ;
584 -> 585 ;
586 [label="ShoppingMall <= 121.5\nentropy = 1.0\nsamples = 10\nvalue = [6, 4]"] ;
584 -> 586 ;
587 [label="entropy = 0.0\nsamples = 2\nvalue = [0, 2]"] ;
586 -> 587 ;
588 [label="FoodCourt <= 285.5\nentropy = 0.8\nsamples = 8\nvalue = [6, 2]"] ;
586 -> 588 ;
589 [label="FoodCourt <= 165.0\nentropy = 1.0\nsamples = 4\nvalue = [2, 2]"] ;
588 -> 589 ;
590 [label="entropy = 0.0\nsamples = 2\nvalue = [2, 0]"] ;
589 -> 590 ;
591 [label="entropy = 0.0\nsamples = 2\nvalue = [0, 2]"] ;
589 -> 591 ;
592 [label="entropy = 0.0\nsamples = 4\nvalue = [4, 0]"] ;
588 -> 592 ;
593 [label="Age <= 23.5\nentropy = 0.6\nsamples = 34\nvalue = [5, 29]"] ;
583 -> 593 ;
594 [label="entropy = 0.0\nsamples = 13\nvalue = [0, 13]"] ;
593 -> 594 ;
595 [label="FoodCourt <= 579.0\nentropy = 0.8\nsamples = 21\nvalue = [5, 16]"] ;
593 -> 595 ;
596 [label="ShoppingMall <= 360.0\nentropy = 1.0\nsamples = 13\nvalue = [5, 8]"] ;
595 -> 596 ;
597 [label="VRDeck <= 45.0\nentropy = 1.0\nsamples = 8\nvalue = [5, 3]"] ;
596 -> 597 ;
598 [label="RoomService <= 46.0\nentropy = 0.7\nsamples = 6\nvalue = [5, 1]"] ;
597 -> 598 ;
599 [label="entropy = 0.0\nsamples = 5\nvalue = [5, 0]"] ;
598 -> 599 ;
600 [label="entropy = 0.0\nsamples = 1\nvalue = [0, 1]"] ;
598 -> 600 ;
601 [label="entropy = 0.0\nsamples = 2\nvalue = [0, 2]"] ;
597 -> 601 ;
602 [label="entropy = 0.0\nsamples = 5\nvalue = [0, 5]"] ;
596 -> 602 ;
603 [label="entropy = 0.0\nsamples = 8\nvalue = [0, 8]"] ;
595 -> 603 ;
604 [label="Spa <= 35.0\nentropy = 1.0\nsamples = 42\nvalue = [26, 16]"] ;
476 -> 604 ;
605 [label="FoodCourt <= 941.0\nentropy = 0.6\nsamples = 14\nvalue = [12, 2]"] ;
604 -> 605 ;
606 [label="entropy = 0.0\nsamples = 11\nvalue = [11, 0]"] ;
605 -> 606 ;
607 [label="FoodCourt <= 1524.5\nentropy = 0.9\nsamples = 3\nvalue = [1, 2]"] ;
605 -> 607 ;
608 [label="entropy = 0.0\nsamples = 2\nvalue = [0, 2]"] ;
607 -> 608 ;
609 [label="entropy = 0.0\nsamples = 1\nvalue = [1, 0]"] ;
607 -> 609 ;
610 [label="Spa <= 48.5\nentropy = 1.0\nsamples = 28\nvalue = [14, 14]"] ;
604 -> 610 ;
611 [label="Age <= 18.0\nentropy = 0.6\nsamples = 7\nvalue = [1, 6]"] ;
610 -> 611 ;
612 [label="entropy = 0.0\nsamples = 1\nvalue = [1, 0]"] ;
611 -> 612 ;
613 [label="entropy = 0.0\nsamples = 6\nvalue = [0, 6]"] ;
611 -> 613 ;
614 [label="Destination_55 Cancri e <= 0.5\nentropy = 1.0\nsamples = 21\nvalue = [13, 8]"] ;
610 -> 614 ;
615 [label="FoodCourt <= 812.5\nentropy = 1.0\nsamples = 17\nvalue = [9, 8]"] ;
614 -> 615 ;
616 [label="Spa <= 63.0\nentropy = 1.0\nsamples = 13\nvalue = [5, 8]"] ;
615 -> 616 ;
617 [label="entropy = 0.0\nsamples = 4\nvalue = [0, 4]"] ;
616 -> 617 ;
618 [label="Age <= 29.0\nentropy = 1.0\nsamples = 9\nvalue = [5, 4]"] ;
616 -> 618 ;
619 [label="entropy = 0.0\nsamples = 3\nvalue = [0, 3]"] ;
618 -> 619 ;
620 [label="ShoppingMall <= 436.5\nentropy = 0.7\nsamples = 6\nvalue = [5, 1]"] ;
618 -> 620 ;
621 [label="entropy = 0.0\nsamples = 5\nvalue = [5, 0]"] ;
620 -> 621 ;
622 [label="entropy = 0.0\nsamples = 1\nvalue = [0, 1]"] ;
620 -> 622 ;
623 [label="entropy = 0.0\nsamples = 4\nvalue = [4, 0]"] ;
615 -> 623 ;
624 [label="entropy = 0.0\nsamples = 4\nvalue = [4, 0]"] ;
614 -> 624 ;
625 [label="Age <= 18.0\nentropy = 0.9\nsamples = 46\nvalue = [14, 32]"] ;
381 -> 625 ;
626 [label="entropy = 0.0\nsamples = 11\nvalue = [0, 11]"] ;
625 -> 626 ;
627 [label="Age <= 56.5\nentropy = 1.0\nsamples = 35\nvalue = [14, 21]"] ;
625 -> 627 ;
628 [label="FoodCourt <= 648.5\nentropy = 1.0\nsamples = 31\nvalue = [14, 17]"] ;
627 -> 628 ;
629 [label="Age <= 30.5\nentropy = 1.0\nsamples = 28\nvalue = [14, 14]"] ;
628 -> 629 ;
630 [label="VIP_False <= 0.5\nentropy = 0.9\nsamples = 12\nvalue = [4, 8]"] ;
629 -> 630 ;
631 [label="entropy = 0.0\nsamples = 2\nvalue = [0, 2]"] ;
630 -> 631 ;
632 [label="Age <= 26.5\nentropy = 1.0\nsamples = 10\nvalue = [4, 6]"] ;
630 -> 632 ;
633 [label="Age <= 25.5\nentropy = 0.8\nsamples = 4\nvalue = [3, 1]"] ;
632 -> 633 ;
634 [label="entropy = 0.0\nsamples = 1\nvalue = [1, 0]"] ;
633 -> 634 ;
635 [label="entropy = 0.9\nsamples = 3\nvalue = [2, 1]"] ;
633 -> 635 ;
636 [label="Age <= 28.5\nentropy = 0.7\nsamples = 6\nvalue = [1, 5]"] ;
632 -> 636 ;
637 [label="Age <= 27.5\nentropy = 0.8\nsamples = 4\nvalue = [1, 3]"] ;
636 -> 637 ;
638 [label="entropy = 0.0\nsamples = 1\nvalue = [0, 1]"] ;
637 -> 638 ;
639 [label="entropy = 0.9\nsamples = 3\nvalue = [1, 2]"] ;
637 -> 639 ;
640 [label="entropy = 0.0\nsamples = 2\nvalue = [0, 2]"] ;
636 -> 640 ;
641 [label="Age <= 33.5\nentropy = 1.0\nsamples = 16\nvalue = [10, 6]"] ;
629 -> 641 ;
642 [label="entropy = 0.0\nsamples = 3\nvalue = [3, 0]"] ;
641 -> 642 ;
643 [label="Age <= 35.5\nentropy = 1.0\nsamples = 13\nvalue = [7, 6]"] ;
641 -> 643 ;
644 [label="entropy = 0.0\nsamples = 1\nvalue = [0, 1]"] ;
643 -> 644 ;
645 [label="Age <= 42.5\nentropy = 1.0\nsamples = 12\nvalue = [7, 5]"] ;
643 -> 645 ;
646 [label="Age <= 37.5\nentropy = 0.9\nsamples = 7\nvalue = [5, 2]"] ;
645 -> 646 ;
647 [label="VIP_True <= 0.5\nentropy = 1.0\nsamples = 4\nvalue = [2, 2]"] ;
646 -> 647 ;
648 [label="Age <= 36.5\nentropy = 0.9\nsamples = 3\nvalue = [1, 2]"] ;
647 -> 648 ;
649 [label="entropy = 0.0\nsamples = 1\nvalue = [0, 1]"] ;
648 -> 649 ;
650 [label="entropy = 1.0\nsamples = 2\nvalue = [1, 1]"] ;
648 -> 650 ;
651 [label="entropy = 0.0\nsamples = 1\nvalue = [1, 0]"] ;
647 -> 651 ;
652 [label="entropy = 0.0\nsamples = 3\nvalue = [3, 0]"] ;
646 -> 652 ;
653 [label="Age <= 51.5\nentropy = 1.0\nsamples = 5\nvalue = [2, 3]"] ;
645 -> 653 ;
654 [label="entropy = 0.0\nsamples = 2\nvalue = [0, 2]"] ;
653 -> 654 ;
655 [label="Age <= 52.5\nentropy = 0.9\nsamples = 3\nvalue = [2, 1]"] ;
653 -> 655 ;
656 [label="entropy = 0.0\nsamples = 1\nvalue = [1, 0]"] ;
655 -> 656 ;
657 [label="Age <= 54.5\nentropy = 1.0\nsamples = 2\nvalue = [1, 1]"] ;
655 -> 657 ;
658 [label="entropy = 0.0\nsamples = 1\nvalue = [0, 1]"] ;
657 -> 658 ;
659 [label="entropy = 0.0\nsamples = 1\nvalue = [1, 0]"] ;
657 -> 659 ;
660 [label="entropy = 0.0\nsamples = 3\nvalue = [0, 3]"] ;
628 -> 660 ;
661 [label="entropy = 0.0\nsamples = 4\nvalue = [0, 4]"] ;
627 -> 661 ;
662 [label="entropy = 0.0\nsamples = 4\nvalue = [4, 0]"] ;
380 -> 662 ;
663 [label="ShoppingMall <= 743.5\nentropy = 0.9\nsamples = 169\nvalue = [57, 112]"] ;
379 -> 663 ;
664 [label="RoomService <= 155.0\nentropy = 0.7\nsamples = 51\nvalue = [9, 42]"] ;
663 -> 664 ;
665 [label="Age <= 14.5\nentropy = 0.4\nsamples = 44\nvalue = [4, 40]"] ;
664 -> 665 ;
666 [label="entropy = 0.0\nsamples = 1\nvalue = [1, 0]"] ;
665 -> 666 ;
667 [label="Spa <= 0.5\nentropy = 0.4\nsamples = 43\nvalue = [3, 40]"] ;
665 -> 667 ;
668 [label="RoomService <= 0.5\nentropy = 0.5\nsamples = 27\nvalue = [3, 24]"] ;
667 -> 668 ;
669 [label="FoodCourt <= 8.0\nentropy = 0.7\nsamples = 16\nvalue = [3, 13]"] ;
668 -> 669 ;
670 [label="Age <= 32.0\nentropy = 0.9\nsamples = 10\nvalue = [3, 7]"] ;
669 -> 670 ;
671 [label="Age <= 27.5\nentropy = 1.0\nsamples = 6\nvalue = [3, 3]"] ;
670 -> 671 ;
672 [label="FoodCourt <= 1.0\nentropy = 0.8\nsamples = 4\nvalue = [1, 3]"] ;
671 -> 672 ;
673 [label="entropy = 0.0\nsamples = 3\nvalue = [0, 3]"] ;
672 -> 673 ;
674 [label="entropy = 0.0\nsamples = 1\nvalue = [1, 0]"] ;
672 -> 674 ;
675 [label="entropy = 0.0\nsamples = 2\nvalue = [2, 0]"] ;
671 -> 675 ;
676 [label="entropy = 0.0\nsamples = 4\nvalue = [0, 4]"] ;
670 -> 676 ;
677 [label="entropy = 0.0\nsamples = 6\nvalue = [0, 6]"] ;
669 -> 677 ;
678 [label="entropy = 0.0\nsamples = 11\nvalue = [0, 11]"] ;
668 -> 678 ;
679 [label="entropy = 0.0\nsamples = 16\nvalue = [0, 16]"] ;
667 -> 679 ;
680 [label="ShoppingMall <= 702.0\nentropy = 0.9\nsamples = 7\nvalue = [5, 2]"] ;
664 -> 680 ;
681 [label="entropy = 0.0\nsamples = 5\nvalue = [5, 0]"] ;
680 -> 681 ;
682 [label="entropy = 0.0\nsamples = 2\nvalue = [0, 2]"] ;
680 -> 682 ;
683 [label="FoodCourt <= 79.5\nentropy = 1.0\nsamples = 118\nvalue = [48, 70]"] ;
663 -> 683 ;
684 [label="Age <= 14.5\nentropy = 1.0\nsamples = 106\nvalue = [47, 59]"] ;
683 -> 684 ;
685 [label="entropy = 0.0\nsamples = 4\nvalue = [4, 0]"] ;
684 -> 685 ;
686 [label="Spa <= 40.0\nentropy = 1.0\nsamples = 102\nvalue = [43, 59]"] ;
684 -> 686 ;
687 [label="Spa <= 25.5\nentropy = 1.0\nsamples = 91\nvalue = [35, 56]"] ;
686 -> 687 ;
688 [label="Age <= 57.0\nentropy = 1.0\nsamples = 85\nvalue = [35, 50]"] ;
687 -> 688 ;
689 [label="ShoppingMall <= 754.5\nentropy = 1.0\nsamples = 81\nvalue = [35, 46]"] ;
688 -> 689 ;
690 [label="entropy = 0.0\nsamples = 2\nvalue = [0, 2]"] ;
689 -> 690 ;
691 [label="ShoppingMall <= 773.5\nentropy = 1.0\nsamples = 79\nvalue = [35, 44]"] ;
689 -> 691 ;
692 [label="entropy = 0.0\nsamples = 3\nvalue = [3, 0]"] ;
691 -> 692 ;
693 [label="RoomService <= 11.5\nentropy = 1.0\nsamples = 76\nvalue = [32, 44]"] ;
691 -> 693 ;
694 [label="ShoppingMall <= 1084.0\nentropy = 0.9\nsamples = 44\nvalue = [15, 29]"] ;
693 -> 694 ;
695 [label="ShoppingMall <= 879.5\nentropy = 0.9\nsamples = 39\nvalue = [11, 28]"] ;
694 -> 695 ;
696 [label="FoodCourt <= 14.0\nentropy = 1.0\nsamples = 26\nvalue = [10, 16]"] ;
695 -> 696 ;
697 [label="Age <= 17.5\nentropy = 0.9\nsamples = 23\nvalue = [7, 16]"] ;
696 -> 697 ;
698 [label="entropy = 0.0\nsamples = 2\nvalue = [2, 0]"] ;
697 -> 698 ;
699 [label="Age <= 24.5\nentropy = 0.8\nsamples = 21\nvalue = [5, 16]"] ;
697 -> 699 ;
700 [label="entropy = 0.0\nsamples = 10\nvalue = [0, 10]"] ;
699 -> 700 ;
701 [label="Age <= 33.0\nentropy = 1.0\nsamples = 11\nvalue = [5, 6]"] ;
699 -> 701 ;
702 [label="ShoppingMall <= 813.5\nentropy = 0.7\nsamples = 5\nvalue = [4, 1]"] ;
701 -> 702 ;
703 [label="ShoppingMall <= 789.5\nentropy = 1.0\nsamples = 2\nvalue = [1, 1]"] ;
702 -> 703 ;
704 [label="entropy = 0.0\nsamples = 1\nvalue = [1, 0]"] ;
703 -> 704 ;
705 [label="entropy = 0.0\nsamples = 1\nvalue = [0, 1]"] ;
703 -> 705 ;
706 [label="entropy = 0.0\nsamples = 3\nvalue = [3, 0]"] ;
702 -> 706 ;
707 [label="Spa <= 1.5\nentropy = 0.7\nsamples = 6\nvalue = [1, 5]"] ;
701 -> 707 ;
708 [label="entropy = 0.0\nsamples = 5\nvalue = [0, 5]"] ;
707 -> 708 ;
709 [label="entropy = 0.0\nsamples = 1\nvalue = [1, 0]"] ;
707 -> 709 ;
710 [label="entropy = 0.0\nsamples = 3\nvalue = [3, 0]"] ;
696 -> 710 ;
711 [label="Age <= 22.0\nentropy = 0.4\nsamples = 13\nvalue = [1, 12]"] ;
695 -> 711 ;
712 [label="Destination_TRAPPIST-1e <= 0.5\nentropy = 1.0\nsamples = 2\nvalue = [1, 1]"] ;
711 -> 712 ;
713 [label="entropy = 0.0\nsamples = 1\nvalue = [0, 1]"] ;
712 -> 713 ;
714 [label="entropy = 0.0\nsamples = 1\nvalue = [1, 0]"] ;
712 -> 714 ;
715 [label="entropy = 0.0\nsamples = 11\nvalue = [0, 11]"] ;
711 -> 715 ;
716 [label="Destination_55 Cancri e <= 0.5\nentropy = 0.7\nsamples = 5\nvalue = [4, 1]"] ;
694 -> 716 ;
717 [label="entropy = 0.0\nsamples = 4\nvalue = [4, 0]"] ;
716 -> 717 ;
718 [label="entropy = 0.0\nsamples = 1\nvalue = [0, 1]"] ;
716 -> 718 ;
719 [label="Age <= 21.5\nentropy = 1.0\nsamples = 32\nvalue = [17, 15]"] ;
693 -> 719 ;
720 [label="entropy = 0.0\nsamples = 4\nvalue = [4, 0]"] ;
719 -> 720 ;
721 [label="Spa <= 6.5\nentropy = 1.0\nsamples = 28\nvalue = [13, 15]"] ;
719 -> 721 ;
722 [label="RoomService <= 132.5\nentropy = 1.0\nsamples = 24\nvalue = [9, 15]"] ;
721 -> 722 ;
723 [label="ShoppingMall <= 1116.5\nentropy = 1.0\nsamples = 17\nvalue = [9, 8]"] ;
722 -> 723 ;
724 [label="RoomService <= 27.0\nentropy = 0.8\nsamples = 11\nvalue = [8, 3]"] ;
723 -> 724 ;
725 [label="entropy = 0.0\nsamples = 4\nvalue = [4, 0]"] ;
724 -> 725 ;
726 [label="ShoppingMall <= 934.5\nentropy = 1.0\nsamples = 7\nvalue = [4, 3]"] ;
724 -> 726 ;
727 [label="entropy = 0.0\nsamples = 2\nvalue = [0, 2]"] ;
726 -> 727 ;
728 [label="RoomService <= 111.5\nentropy = 0.7\nsamples = 5\nvalue = [4, 1]"] ;
726 -> 728 ;
729 [label="entropy = 0.0\nsamples = 3\nvalue = [3, 0]"] ;
728 -> 729 ;
730 [label="RoomService <= 123.0\nentropy = 1.0\nsamples = 2\nvalue = [1, 1]"] ;
728 -> 730 ;
731 [label="entropy = 0.0\nsamples = 1\nvalue = [0, 1]"] ;
730 -> 731 ;
732 [label="entropy = 0.0\nsamples = 1\nvalue = [1, 0]"] ;
730 -> 732 ;
733 [label="ShoppingMall <= 1174.0\nentropy = 0.7\nsamples = 6\nvalue = [1, 5]"] ;
723 -> 733 ;
734 [label="entropy = 0.0\nsamples = 5\nvalue = [0, 5]"] ;
733 -> 734 ;
735 [label="entropy = 0.0\nsamples = 1\nvalue = [1, 0]"] ;
733 -> 735 ;
736 [label="entropy = 0.0\nsamples = 7\nvalue = [0, 7]"] ;
722 -> 736 ;
737 [label="entropy = 0.0\nsamples = 4\nvalue = [4, 0]"] ;
721 -> 737 ;
738 [label="entropy = 0.0\nsamples = 4\nvalue = [0, 4]"] ;
688 -> 738 ;
739 [label="entropy = 0.0\nsamples = 6\nvalue = [0, 6]"] ;
687 -> 739 ;
740 [label="Destination_PSO J318.5-22 <= 0.5\nentropy = 0.8\nsamples = 11\nvalue = [8, 3]"] ;
686 -> 740 ;
741 [label="ShoppingMall <= 888.0\nentropy = 0.7\nsamples = 10\nvalue = [8, 2]"] ;
740 -> 741 ;
742 [label="entropy = 0.0\nsamples = 6\nvalue = [6, 0]"] ;
741 -> 742 ;
743 [label="RoomService <= 242.5\nentropy = 1.0\nsamples = 4\nvalue = [2, 2]"] ;
741 -> 743 ;
744 [label="Spa <= 47.5\nentropy = 0.9\nsamples = 3\nvalue = [1, 2]"] ;
743 -> 744 ;
745 [label="entropy = 0.0\nsamples = 1\nvalue = [1, 0]"] ;
744 -> 745 ;
746 [label="entropy = 0.0\nsamples = 2\nvalue = [0, 2]"] ;
744 -> 746 ;
747 [label="entropy = 0.0\nsamples = 1\nvalue = [1, 0]"] ;
743 -> 747 ;
748 [label="entropy = 0.0\nsamples = 1\nvalue = [0, 1]"] ;
740 -> 748 ;
749 [label="Spa <= 47.0\nentropy = 0.4\nsamples = 12\nvalue = [1, 11]"] ;
683 -> 749 ;
750 [label="entropy = 0.0\nsamples = 10\nvalue = [0, 10]"] ;
749 -> 750 ;
751 [label="ShoppingMall <= 822.5\nentropy = 1.0\nsamples = 2\nvalue = [1, 1]"] ;
749 -> 751 ;
752 [label="entropy = 0.0\nsamples = 1\nvalue = [1, 0]"] ;
751 -> 752 ;
753 [label="entropy = 0.0\nsamples = 1\nvalue = [0, 1]"] ;
751 -> 753 ;
754 [label="FoodCourt <= 1388.5\nentropy = 0.9\nsamples = 65\nvalue = [43, 22]"] ;
358 -> 754 ;
755 [label="HomePlanet_Mars <= 0.5\nentropy = 0.9\nsamples = 60\nvalue = [42, 18]"] ;
754 -> 755 ;
756 [label="ShoppingMall <= 737.5\nentropy = 0.8\nsamples = 58\nvalue = [42, 16]"] ;
755 -> 756 ;
757 [label="FoodCourt <= 587.0\nentropy = 0.9\nsamples = 53\nvalue = [37, 16]"] ;
756 -> 757 ;
758 [label="FoodCourt <= 534.5\nentropy = 0.9\nsamples = 42\nvalue = [27, 15]"] ;
757 -> 758 ;
759 [label="ShoppingMall <= 75.5\nentropy = 0.9\nsamples = 38\nvalue = [27, 11]"] ;
758 -> 759 ;
760 [label="FoodCourt <= 434.5\nentropy = 0.6\nsamples = 15\nvalue = [13, 2]"] ;
759 -> 760 ;
761 [label="FoodCourt <= 399.5\nentropy = 0.9\nsamples = 7\nvalue = [5, 2]"] ;
760 -> 761 ;
762 [label="entropy = 0.0\nsamples = 4\nvalue = [4, 0]"] ;
761 -> 762 ;
763 [label="Age <= 37.5\nentropy = 0.9\nsamples = 3\nvalue = [1, 2]"] ;
761 -> 763 ;
764 [label="entropy = 0.0\nsamples = 2\nvalue = [0, 2]"] ;
763 -> 764 ;
765 [label="entropy = 0.0\nsamples = 1\nvalue = [1, 0]"] ;
763 -> 765 ;
766 [label="entropy = 0.0\nsamples = 8\nvalue = [8, 0]"] ;
760 -> 766 ;
767 [label="ShoppingMall <= 118.0\nentropy = 1.0\nsamples = 23\nvalue = [14, 9]"] ;
759 -> 767 ;
768 [label="entropy = 0.0\nsamples = 2\nvalue = [0, 2]"] ;
767 -> 768 ;
769 [label="VRDeck <= 246.5\nentropy = 0.9\nsamples = 21\nvalue = [14, 7]"] ;
767 -> 769 ;
770 [label="VRDeck <= 103.0\nentropy = 1.0\nsamples = 17\nvalue = [10, 7]"] ;
769 -> 770 ;
771 [label="entropy = 0.0\nsamples = 3\nvalue = [3, 0]"] ;
770 -> 771 ;
772 [label="ShoppingMall <= 317.0\nentropy = 1.0\nsamples = 14\nvalue = [7, 7]"] ;
770 -> 772 ;
773 [label="entropy = 0.0\nsamples = 2\nvalue = [2, 0]"] ;
772 -> 773 ;
774 [label="RoomService <= 8.5\nentropy = 1.0\nsamples = 12\nvalue = [5, 7]"] ;
772 -> 774 ;
775 [label="FoodCourt <= 19.5\nentropy = 1.0\nsamples = 9\nvalue = [5, 4]"] ;
774 -> 775 ;
776 [label="VRDeck <= 198.0\nentropy = 0.9\nsamples = 7\nvalue = [5, 2]"] ;
775 -> 776 ;
777 [label="entropy = 0.0\nsamples = 4\nvalue = [4, 0]"] ;
776 -> 777 ;
778 [label="VRDeck <= 229.0\nentropy = 0.9\nsamples = 3\nvalue = [1, 2]"] ;
776 -> 778 ;
779 [label="entropy = 0.0\nsamples = 2\nvalue = [0, 2]"] ;
778 -> 779 ;
780 [label="entropy = 0.0\nsamples = 1\nvalue = [1, 0]"] ;
778 -> 780 ;
781 [label="entropy = 0.0\nsamples = 2\nvalue = [0, 2]"] ;
775 -> 781 ;
782 [label="entropy = 0.0\nsamples = 3\nvalue = [0, 3]"] ;
774 -> 782 ;
783 [label="entropy = 0.0\nsamples = 4\nvalue = [4, 0]"] ;
769 -> 783 ;
784 [label="entropy = 0.0\nsamples = 4\nvalue = [0, 4]"] ;
758 -> 784 ;
785 [label="Spa <= 37.5\nentropy = 0.4\nsamples = 11\nvalue = [10, 1]"] ;
757 -> 785 ;
786 [label="entropy = 0.0\nsamples = 10\nvalue = [10, 0]"] ;
785 -> 786 ;
787 [label="entropy = 0.0\nsamples = 1\nvalue = [0, 1]"] ;
785 -> 787 ;
788 [label="entropy = 0.0\nsamples = 5\nvalue = [5, 0]"] ;
756 -> 788 ;
789 [label="entropy = 0.0\nsamples = 2\nvalue = [0, 2]"] ;
755 -> 789 ;
790 [label="Spa <= 2.5\nentropy = 0.7\nsamples = 5\nvalue = [1, 4]"] ;
754 -> 790 ;
791 [label="entropy = 0.0\nsamples = 1\nvalue = [1, 0]"] ;
790 -> 791 ;
792 [label="entropy = 0.0\nsamples = 4\nvalue = [0, 4]"] ;
790 -> 792 ;
793 [label="VRDeck <= 219.0\nentropy = 0.4\nsamples = 79\nvalue = [6, 73]"] ;
357 -> 793 ;
794 [label="ShoppingMall <= 1902.5\nentropy = 0.3\nsamples = 77\nvalue = [4, 73]"] ;
793 -> 794 ;
795 [label="ShoppingMall <= 1888.0\nentropy = 0.5\nsamples = 38\nvalue = [4, 34]"] ;
794 -> 795 ;
796 [label="ShoppingMall <= 1441.5\nentropy = 0.4\nsamples = 37\nvalue = [3, 34]"] ;
795 -> 796 ;
797 [label="entropy = 0.0\nsamples = 16\nvalue = [0, 16]"] ;
796 -> 797 ;
798 [label="ShoppingMall <= 1452.0\nentropy = 0.6\nsamples = 21\nvalue = [3, 18]"] ;
796 -> 798 ;
799 [label="entropy = 0.0\nsamples = 1\nvalue = [1, 0]"] ;
798 -> 799 ;
800 [label="RoomService <= 4.5\nentropy = 0.5\nsamples = 20\nvalue = [2, 18]"] ;
798 -> 800 ;
801 [label="entropy = 0.0\nsamples = 7\nvalue = [0, 7]"] ;
800 -> 801 ;
802 [label="RoomService <= 77.0\nentropy = 0.6\nsamples = 13\nvalue = [2, 11]"] ;
800 -> 802 ;
803 [label="FoodCourt <= 1.0\nentropy = 0.8\nsamples = 8\nvalue = [2, 6]"] ;
802 -> 803 ;
804 [label="ShoppingMall <= 1521.5\nentropy = 1.0\nsamples = 4\nvalue = [2, 2]"] ;
803 -> 804 ;
805 [label="entropy = 0.0\nsamples = 2\nvalue = [0, 2]"] ;
804 -> 805 ;
806 [label="entropy = 0.0\nsamples = 2\nvalue = [2, 0]"] ;
804 -> 806 ;
807 [label="entropy = 0.0\nsamples = 4\nvalue = [0, 4]"] ;
803 -> 807 ;
808 [label="entropy = 0.0\nsamples = 5\nvalue = [0, 5]"] ;
802 -> 808 ;
809 [label="entropy = 0.0\nsamples = 1\nvalue = [1, 0]"] ;
795 -> 809 ;
810 [label="entropy = 0.0\nsamples = 39\nvalue = [0, 39]"] ;
794 -> 810 ;
811 [label="entropy = 0.0\nsamples = 2\nvalue = [2, 0]"] ;
793 -> 811 ;
812 [label="FoodCourt <= 424.0\nentropy = 0.8\nsamples = 156\nvalue = [114, 42]"] ;
356 -> 812 ;
813 [label="ShoppingMall <= 1304.0\nentropy = 0.7\nsamples = 120\nvalue = [96, 24]"] ;
812 -> 813 ;
814 [label="VRDeck <= 105.5\nentropy = 0.7\nsamples = 112\nvalue = [93, 19]"] ;
813 -> 814 ;
815 [label="Spa <= 434.5\nentropy = 0.5\nsamples = 96\nvalue = [84, 12]"] ;
814 -> 815 ;
816 [label="Spa <= 399.0\nentropy = 0.6\nsamples = 67\nvalue = [56, 11]"] ;
815 -> 816 ;
817 [label="Age <= 20.5\nentropy = 0.5\nsamples = 58\nvalue = [51, 7]"] ;
816 -> 817 ;
818 [label="entropy = 0.0\nsamples = 16\nvalue = [16, 0]"] ;
817 -> 818 ;
819 [label="ShoppingMall <= 183.0\nentropy = 0.7\nsamples = 42\nvalue = [35, 7]"] ;
817 -> 819 ;
820 [label="entropy = 0.0\nsamples = 9\nvalue = [9, 0]"] ;
819 -> 820 ;
821 [label="ShoppingMall <= 308.5\nentropy = 0.7\nsamples = 33\nvalue = [26, 7]"] ;
819 -> 821 ;
822 [label="Spa <= 342.0\nentropy = 0.9\nsamples = 3\nvalue = [1, 2]"] ;
821 -> 822 ;
823 [label="entropy = 0.0\nsamples = 2\nvalue = [0, 2]"] ;
822 -> 823 ;
824 [label="entropy = 0.0\nsamples = 1\nvalue = [1, 0]"] ;
822 -> 824 ;
825 [label="Age <= 34.5\nentropy = 0.7\nsamples = 30\nvalue = [25, 5]"] ;
821 -> 825 ;
826 [label="RoomService <= 202.0\nentropy = 0.8\nsamples = 19\nvalue = [14, 5]"] ;
825 -> 826 ;
827 [label="RoomService <= 24.5\nentropy = 0.8\nsamples = 18\nvalue = [14, 4]"] ;
826 -> 827 ;
828 [label="Spa <= 227.5\nentropy = 1.0\nsamples = 10\nvalue = [6, 4]"] ;
827 -> 828 ;
829 [label="Spa <= 157.5\nentropy = 0.8\nsamples = 4\nvalue = [1, 3]"] ;
828 -> 829 ;
830 [label="entropy = 0.0\nsamples = 1\nvalue = [1, 0]"] ;
829 -> 830 ;
831 [label="entropy = 0.0\nsamples = 3\nvalue = [0, 3]"] ;
829 -> 831 ;
832 [label="Age <= 30.5\nentropy = 0.7\nsamples = 6\nvalue = [5, 1]"] ;
828 -> 832 ;
833 [label="entropy = 0.0\nsamples = 5\nvalue = [5, 0]"] ;
832 -> 833 ;
834 [label="entropy = 0.0\nsamples = 1\nvalue = [0, 1]"] ;
832 -> 834 ;
835 [label="entropy = 0.0\nsamples = 8\nvalue = [8, 0]"] ;
827 -> 835 ;
836 [label="entropy = 0.0\nsamples = 1\nvalue = [0, 1]"] ;
826 -> 836 ;
837 [label="entropy = 0.0\nsamples = 11\nvalue = [11, 0]"] ;
825 -> 837 ;
838 [label="FoodCourt <= 15.0\nentropy = 1.0\nsamples = 9\nvalue = [5, 4]"] ;
816 -> 838 ;
839 [label="entropy = 0.0\nsamples = 3\nvalue = [3, 0]"] ;
838 -> 839 ;
840 [label="Age <= 16.0\nentropy = 0.9\nsamples = 6\nvalue = [2, 4]"] ;
838 -> 840 ;
841 [label="entropy = 0.0\nsamples = 1\nvalue = [1, 0]"] ;
840 -> 841 ;
842 [label="Destination_PSO J318.5-22 <= 0.5\nentropy = 0.7\nsamples = 5\nvalue = [1, 4]"] ;
840 -> 842 ;
843 [label="entropy = 0.0\nsamples = 3\nvalue = [0, 3]"] ;
842 -> 843 ;
844 [label="RoomService <= 4.0\nentropy = 1.0\nsamples = 2\nvalue = [1, 1]"] ;
842 -> 844 ;
845 [label="entropy = 0.0\nsamples = 1\nvalue = [1, 0]"] ;
844 -> 845 ;
846 [label="entropy = 0.0\nsamples = 1\nvalue = [0, 1]"] ;
844 -> 846 ;
847 [label="Age <= 17.5\nentropy = 0.2\nsamples = 29\nvalue = [28, 1]"] ;
815 -> 847 ;
848 [label="Spa <= 502.0\nentropy = 1.0\nsamples = 2\nvalue = [1, 1]"] ;
847 -> 848 ;
849 [label="entropy = 0.0\nsamples = 1\nvalue = [1, 0]"] ;
848 -> 849 ;
850 [label="entropy = 0.0\nsamples = 1\nvalue = [0, 1]"] ;
848 -> 850 ;
851 [label="entropy = 0.0\nsamples = 27\nvalue = [27, 0]"] ;
847 -> 851 ;
852 [label="VRDeck <= 112.0\nentropy = 1.0\nsamples = 16\nvalue = [9, 7]"] ;
814 -> 852 ;
853 [label="entropy = 0.0\nsamples = 3\nvalue = [0, 3]"] ;
852 -> 853 ;
854 [label="Spa <= 330.0\nentropy = 0.9\nsamples = 13\nvalue = [9, 4]"] ;
852 -> 854 ;
855 [label="entropy = 0.0\nsamples = 4\nvalue = [4, 0]"] ;
854 -> 855 ;
856 [label="FoodCourt <= 6.5\nentropy = 1.0\nsamples = 9\nvalue = [5, 4]"] ;
854 -> 856 ;
857 [label="Spa <= 443.0\nentropy = 1.0\nsamples = 7\nvalue = [3, 4]"] ;
856 -> 857 ;
858 [label="entropy = 0.0\nsamples = 3\nvalue = [0, 3]"] ;
857 -> 858 ;
859 [label="ShoppingMall <= 16.0\nentropy = 0.8\nsamples = 4\nvalue = [3, 1]"] ;
857 -> 859 ;
860 [label="entropy = 0.0\nsamples = 3\nvalue = [3, 0]"] ;
859 -> 860 ;
861 [label="entropy = 0.0\nsamples = 1\nvalue = [0, 1]"] ;
859 -> 861 ;
862 [label="entropy = 0.0\nsamples = 2\nvalue = [2, 0]"] ;
856 -> 862 ;
863 [label="Spa <= 345.0\nentropy = 1.0\nsamples = 8\nvalue = [3, 5]"] ;
813 -> 863 ;
864 [label="entropy = 0.0\nsamples = 5\nvalue = [0, 5]"] ;
863 -> 864 ;
865 [label="entropy = 0.0\nsamples = 3\nvalue = [3, 0]"] ;
863 -> 865 ;
866 [label="Destination_55 Cancri e <= 0.5\nentropy = 1.0\nsamples = 36\nvalue = [18, 18]"] ;
812 -> 866 ;
867 [label="Age <= 29.5\nentropy = 1.0\nsamples = 32\nvalue = [18, 14]"] ;
866 -> 867 ;
868 [label="ShoppingMall <= 1.0\nentropy = 0.8\nsamples = 16\nvalue = [12, 4]"] ;
867 -> 868 ;
869 [label="entropy = 0.0\nsamples = 8\nvalue = [8, 0]"] ;
868 -> 869 ;
870 [label="Age <= 21.5\nentropy = 1.0\nsamples = 8\nvalue = [4, 4]"] ;
868 -> 870 ;
871 [label="entropy = 0.0\nsamples = 3\nvalue = [0, 3]"] ;
870 -> 871 ;
872 [label="ShoppingMall <= 1814.0\nentropy = 0.7\nsamples = 5\nvalue = [4, 1]"] ;
870 -> 872 ;
873 [label="entropy = 0.0\nsamples = 4\nvalue = [4, 0]"] ;
872 -> 873 ;
874 [label="entropy = 0.0\nsamples = 1\nvalue = [0, 1]"] ;
872 -> 874 ;
875 [label="Spa <= 407.5\nentropy = 1.0\nsamples = 16\nvalue = [6, 10]"] ;
867 -> 875 ;
876 [label="FoodCourt <= 669.0\nentropy = 0.8\nsamples = 12\nvalue = [3, 9]"] ;
875 -> 876 ;
877 [label="ShoppingMall <= 100.5\nentropy = 1.0\nsamples = 7\nvalue = [3, 4]"] ;
876 -> 877 ;
878 [label="Age <= 41.0\nentropy = 1.0\nsamples = 5\nvalue = [3, 2]"] ;
877 -> 878 ;
879 [label="entropy = 0.0\nsamples = 2\nvalue = [2, 0]"] ;
878 -> 879 ;
880 [label="Spa <= 161.5\nentropy = 0.9\nsamples = 3\nvalue = [1, 2]"] ;
878 -> 880 ;
881 [label="entropy = 0.0\nsamples = 1\nvalue = [0, 1]"] ;
880 -> 881 ;
882 [label="Spa <= 235.0\nentropy = 1.0\nsamples = 2\nvalue = [1, 1]"] ;
880 -> 882 ;
883 [label="entropy = 0.0\nsamples = 1\nvalue = [1, 0]"] ;
882 -> 883 ;
884 [label="entropy = 0.0\nsamples = 1\nvalue = [0, 1]"] ;
882 -> 884 ;
885 [label="entropy = 0.0\nsamples = 2\nvalue = [0, 2]"] ;
877 -> 885 ;
886 [label="entropy = 0.0\nsamples = 5\nvalue = [0, 5]"] ;
876 -> 886 ;
887 [label="ShoppingMall <= 11.5\nentropy = 0.8\nsamples = 4\nvalue = [3, 1]"] ;
875 -> 887 ;
888 [label="VRDeck <= 35.5\nentropy = 1.0\nsamples = 2\nvalue = [1, 1]"] ;
887 -> 888 ;
889 [label="entropy = 0.0\nsamples = 1\nvalue = [1, 0]"] ;
888 -> 889 ;
890 [label="entropy = 0.0\nsamples = 1\nvalue = [0, 1]"] ;
888 -> 890 ;
891 [label="entropy = 0.0\nsamples = 2\nvalue = [2, 0]"] ;
887 -> 891 ;
892 [label="entropy = 0.0\nsamples = 4\nvalue = [0, 4]"] ;
866 -> 892 ;
893 [label="FoodCourt <= 2579.5\nentropy = 0.1\nsamples = 120\nvalue = [2, 118]"] ;
355 -> 893 ;
894 [label="FoodCourt <= 2554.0\nentropy = 0.3\nsamples = 31\nvalue = [2, 29]"] ;
893 -> 894 ;
895 [label="Age <= 18.0\nentropy = 0.2\nsamples = 30\nvalue = [1, 29]"] ;
894 -> 895 ;
896 [label="RoomService <= 11.0\nentropy = 0.7\nsamples = 5\nvalue = [1, 4]"] ;
895 -> 896 ;
897 [label="entropy = 0.0\nsamples = 3\nvalue = [0, 3]"] ;
896 -> 897 ;
898 [label="VRDeck <= 26.0\nentropy = 1.0\nsamples = 2\nvalue = [1, 1]"] ;
896 -> 898 ;
899 [label="entropy = 0.0\nsamples = 1\nvalue = [0, 1]"] ;
898 -> 899 ;
900 [label="entropy = 0.0\nsamples = 1\nvalue = [1, 0]"] ;
898 -> 900 ;
901 [label="entropy = 0.0\nsamples = 25\nvalue = [0, 25]"] ;
895 -> 901 ;
902 [label="entropy = 0.0\nsamples = 1\nvalue = [1, 0]"] ;
894 -> 902 ;
903 [label="entropy = 0.0\nsamples = 89\nvalue = [0, 89]"] ;
893 -> 903 ;
904 [label="FoodCourt <= 3242.0\nentropy = 0.8\nsamples = 559\nvalue = [430, 129]"] ;
354 -> 904 ;
905 [label="VRDeck <= 1682.0\nentropy = 0.7\nsamples = 503\nvalue = [415, 88]"] ;
904 -> 905 ;
906 [label="HomePlanet_Europa <= 0.5\nentropy = 0.7\nsamples = 395\nvalue = [311, 84]"] ;
905 -> 906 ;
907 [label="Spa <= 125.5\nentropy = 0.6\nsamples = 339\nvalue = [283, 56]"] ;
906 -> 907 ;
908 [label="Spa <= 0.5\nentropy = 0.6\nsamples = 301\nvalue = [258, 43]"] ;
907 -> 908 ;
909 [label="ShoppingMall <= 290.0\nentropy = 0.7\nsamples = 186\nvalue = [151, 35]"] ;
908 -> 909 ;
910 [label="VRDeck <= 1300.0\nentropy = 0.7\nsamples = 161\nvalue = [127, 34]"] ;
909 -> 910 ;
911 [label="RoomService <= 80.5\nentropy = 0.8\nsamples = 151\nvalue = [117, 34]"] ;
910 -> 911 ;
912 [label="RoomService <= 64.0\nentropy = 0.8\nsamples = 132\nvalue = [99, 33]"] ;
911 -> 912 ;
913 [label="RoomService <= 37.5\nentropy = 0.8\nsamples = 130\nvalue = [99, 31]"] ;
912 -> 913 ;
914 [label="FoodCourt <= 770.0\nentropy = 0.8\nsamples = 124\nvalue = [93, 31]"] ;
913 -> 914 ;
915 [label="VRDeck <= 401.5\nentropy = 0.8\nsamples = 118\nvalue = [87, 31]"] ;
914 -> 915 ;
916 [label="FoodCourt <= 367.0\nentropy = 1.0\nsamples = 8\nvalue = [3, 5]"] ;
915 -> 916 ;
917 [label="entropy = 0.0\nsamples = 4\nvalue = [0, 4]"] ;
916 -> 917 ;
918 [label="Age <= 21.5\nentropy = 0.8\nsamples = 4\nvalue = [3, 1]"] ;
916 -> 918 ;
919 [label="entropy = 0.0\nsamples = 2\nvalue = [2, 0]"] ;
918 -> 919 ;
920 [label="RoomService <= 0.5\nentropy = 1.0\nsamples = 2\nvalue = [1, 1]"] ;
918 -> 920 ;
921 [label="entropy = 0.0\nsamples = 1\nvalue = [0, 1]"] ;
920 -> 921 ;
922 [label="entropy = 0.0\nsamples = 1\nvalue = [1, 0]"] ;
920 -> 922 ;
923 [label="FoodCourt <= 403.0\nentropy = 0.8\nsamples = 110\nvalue = [84, 26]"] ;
915 -> 923 ;
924 [label="Age <= 53.0\nentropy = 0.8\nsamples = 108\nvalue = [84, 24]"] ;
923 -> 924 ;
925 [label="VRDeck <= 1152.5\nentropy = 0.7\nsamples = 101\nvalue = [81, 20]"] ;
924 -> 925 ;
926 [label="ShoppingMall <= 283.5\nentropy = 0.7\nsamples = 97\nvalue = [80, 17]"] ;
925 -> 926 ;
927 [label="FoodCourt <= 204.0\nentropy = 0.7\nsamples = 96\nvalue = [80, 16]"] ;
926 -> 927 ;
928 [label="FoodCourt <= 143.0\nentropy = 0.7\nsamples = 88\nvalue = [72, 16]"] ;
927 -> 928 ;
929 [label="VRDeck <= 869.5\nentropy = 0.6\nsamples = 86\nvalue = [72, 14]"] ;
928 -> 929 ;
930 [label="VRDeck <= 800.5\nentropy = 0.7\nsamples = 70\nvalue = [57, 13]"] ;
929 -> 930 ;
931 [label="FoodCourt <= 3.5\nentropy = 0.5\nsamples = 55\nvalue = [48, 7]"] ;
930 -> 931 ;
932 [label="VRDeck <= 499.0\nentropy = 0.3\nsamples = 32\nvalue = [30, 2]"] ;
931 -> 932 ;
933 [label="ShoppingMall <= 91.5\nentropy = 1.0\nsamples = 2\nvalue = [1, 1]"] ;
932 -> 933 ;
934 [label="entropy = 0.0\nsamples = 1\nvalue = [1, 0]"] ;
933 -> 934 ;
935 [label="entropy = 0.0\nsamples = 1\nvalue = [0, 1]"] ;
933 -> 935 ;
936 [label="Age <= 20.5\nentropy = 0.2\nsamples = 30\nvalue = [29, 1]"] ;
932 -> 936 ;
937 [label="Age <= 19.5\nentropy = 0.7\nsamples = 6\nvalue = [5, 1]"] ;
936 -> 937 ;
938 [label="entropy = 0.0\nsamples = 5\nvalue = [5, 0]"] ;
937 -> 938 ;
939 [label="entropy = 0.0\nsamples = 1\nvalue = [0, 1]"] ;
937 -> 939 ;
940 [label="entropy = 0.0\nsamples = 24\nvalue = [24, 0]"] ;
936 -> 940 ;
941 [label="FoodCourt <= 22.5\nentropy = 0.8\nsamples = 23\nvalue = [18, 5]"] ;
931 -> 941 ;
942 [label="ShoppingMall <= 79.5\nentropy = 0.9\nsamples = 17\nvalue = [12, 5]"] ;
941 -> 942 ;
943 [label="FoodCourt <= 8.5\nentropy = 0.8\nsamples = 16\nvalue = [12, 4]"] ;
942 -> 943 ;
944 [label="entropy = 0.0\nsamples = 5\nvalue = [5, 0]"] ;
943 -> 944 ;
945 [label="RoomService <= 11.0\nentropy = 0.9\nsamples = 11\nvalue = [7, 4]"] ;
943 -> 945 ;
946 [label="FoodCourt <= 15.5\nentropy = 0.9\nsamples = 10\nvalue = [7, 3]"] ;
945 -> 946 ;
947 [label="entropy = 0.0\nsamples = 4\nvalue = [4, 0]"] ;
946 -> 947 ;
948 [label="Age <= 48.5\nentropy = 1.0\nsamples = 6\nvalue = [3, 3]"] ;
946 -> 948 ;
949 [label="Age <= 25.5\nentropy = 1.0\nsamples = 5\nvalue = [2, 3]"] ;
948 -> 949 ;
950 [label="VRDeck <= 714.0\nentropy = 0.9\nsamples = 3\nvalue = [2, 1]"] ;
949 -> 950 ;
951 [label="entropy = 0.0\nsamples = 1\nvalue = [0, 1]"] ;
950 -> 951 ;
952 [label="entropy = 0.0\nsamples = 2\nvalue = [2, 0]"] ;
950 -> 952 ;
953 [label="entropy = 0.0\nsamples = 2\nvalue = [0, 2]"] ;
949 -> 953 ;
954 [label="entropy = 0.0\nsamples = 1\nvalue = [1, 0]"] ;
948 -> 954 ;
955 [label="entropy = 0.0\nsamples = 1\nvalue = [0, 1]"] ;
945 -> 955 ;
956 [label="entropy = 0.0\nsamples = 1\nvalue = [0, 1]"] ;
942 -> 956 ;
957 [label="entropy = 0.0\nsamples = 6\nvalue = [6, 0]"] ;
941 -> 957 ;
958 [label="VRDeck <= 827.0\nentropy = 1.0\nsamples = 15\nvalue = [9, 6]"] ;
930 -> 958 ;
959 [label="VRDeck <= 813.0\nentropy = 1.0\nsamples = 8\nvalue = [3, 5]"] ;
958 -> 959 ;
960 [label="FoodCourt <= 13.5\nentropy = 1.0\nsamples = 6\nvalue = [3, 3]"] ;
959 -> 960 ;
961 [label="Age <= 15.5\nentropy = 0.8\nsamples = 4\nvalue = [3, 1]"] ;
960 -> 961 ;
962 [label="entropy = 0.0\nsamples = 1\nvalue = [0, 1]"] ;
961 -> 962 ;
963 [label="entropy = 0.0\nsamples = 3\nvalue = [3, 0]"] ;
961 -> 963 ;
964 [label="entropy = 0.0\nsamples = 2\nvalue = [0, 2]"] ;
960 -> 964 ;
965 [label="entropy = 0.0\nsamples = 2\nvalue = [0, 2]"] ;
959 -> 965 ;
966 [label="VRDeck <= 866.5\nentropy = 0.6\nsamples = 7\nvalue = [6, 1]"] ;
958 -> 966 ;
967 [label="entropy = 0.0\nsamples = 6\nvalue = [6, 0]"] ;
966 -> 967 ;
968 [label="entropy = 0.0\nsamples = 1\nvalue = [0, 1]"] ;
966 -> 968 ;
969 [label="VRDeck <= 958.5\nentropy = 0.3\nsamples = 16\nvalue = [15, 1]"] ;
929 -> 969 ;
970 [label="entropy = 0.0\nsamples = 11\nvalue = [11, 0]"] ;
969 -> 970 ;
971 [label="VRDeck <= 1007.0\nentropy = 0.7\nsamples = 5\nvalue = [4, 1]"] ;
969 -> 971 ;
972 [label="entropy = 0.0\nsamples = 1\nvalue = [0, 1]"] ;
971 -> 972 ;
973 [label="entropy = 0.0\nsamples = 4\nvalue = [4, 0]"] ;
971 -> 973 ;
974 [label="entropy = 0.0\nsamples = 2\nvalue = [0, 2]"] ;
928 -> 974 ;
975 [label="entropy = 0.0\nsamples = 8\nvalue = [8, 0]"] ;
927 -> 975 ;
976 [label="entropy = 0.0\nsamples = 1\nvalue = [0, 1]"] ;
926 -> 976 ;
977 [label="Age <= 25.5\nentropy = 0.8\nsamples = 4\nvalue = [1, 3]"] ;
925 -> 977 ;
978 [label="FoodCourt <= 2.0\nentropy = 1.0\nsamples = 2\nvalue = [1, 1]"] ;
977 -> 978 ;
979 [label="entropy = 0.0\nsamples = 1\nvalue = [1, 0]"] ;
978 -> 979 ;
980 [label="entropy = 0.0\nsamples = 1\nvalue = [0, 1]"] ;
978 -> 980 ;
981 [label="entropy = 0.0\nsamples = 2\nvalue = [0, 2]"] ;
977 -> 981 ;
982 [label="Age <= 57.5\nentropy = 1.0\nsamples = 7\nvalue = [3, 4]"] ;
924 -> 982 ;
983 [label="entropy = 0.0\nsamples = 4\nvalue = [0, 4]"] ;
982 -> 983 ;
984 [label="entropy = 0.0\nsamples = 3\nvalue = [3, 0]"] ;
982 -> 984 ;
985 [label="entropy = 0.0\nsamples = 2\nvalue = [0, 2]"] ;
923 -> 985 ;
986 [label="entropy = 0.0\nsamples = 6\nvalue = [6, 0]"] ;
914 -> 986 ;
987 [label="entropy = 0.0\nsamples = 6\nvalue = [6, 0]"] ;
913 -> 987 ;
988 [label="entropy = 0.0\nsamples = 2\nvalue = [0, 2]"] ;
912 -> 988 ;
989 [label="RoomService <= 271.0\nentropy = 0.3\nsamples = 19\nvalue = [18, 1]"] ;
911 -> 989 ;
990 [label="entropy = 0.0\nsamples = 17\nvalue = [17, 0]"] ;
989 -> 990 ;
991 [label="Age <= 48.0\nentropy = 1.0\nsamples = 2\nvalue = [1, 1]"] ;
989 -> 991 ;
992 [label="entropy = 0.0\nsamples = 1\nvalue = [0, 1]"] ;
991 -> 992 ;
993 [label="entropy = 0.0\nsamples = 1\nvalue = [1, 0]"] ;
991 -> 993 ;
994 [label="entropy = 0.0\nsamples = 10\nvalue = [10, 0]"] ;
910 -> 994 ;
995 [label="ShoppingMall <= 1393.5\nentropy = 0.2\nsamples = 25\nvalue = [24, 1]"] ;
909 -> 995 ;
996 [label="entropy = 0.0\nsamples = 22\nvalue = [22, 0]"] ;
995 -> 996 ;
997 [label="RoomService <= 130.0\nentropy = 0.9\nsamples = 3\nvalue = [2, 1]"] ;
995 -> 997 ;
998 [label="entropy = 0.0\nsamples = 2\nvalue = [2, 0]"] ;
997 -> 998 ;
999 [label="entropy = 0.0\nsamples = 1\nvalue = [0, 1]"] ;
997 -> 999 ;
1000 [label="FoodCourt <= 9.5\nentropy = 0.4\nsamples = 115\nvalue = [107, 8]"] ;
908 -> 1000 ;
1001 [label="Age <= 18.5\nentropy = 0.5\nsamples = 65\nvalue = [57, 8]"] ;
1000 -> 1001 ;
1002 [label="VRDeck <= 775.0\nentropy = 1.0\nsamples = 10\nvalue = [6, 4]"] ;
1001 -> 1002 ;
1003 [label="Destination_55 Cancri e <= 0.5\nentropy = 0.6\nsamples = 7\nvalue = [6, 1]"] ;
1002 -> 1003 ;
1004 [label="entropy = 0.0\nsamples = 6\nvalue = [6, 0]"] ;
1003 -> 1004 ;
1005 [label="entropy = 0.0\nsamples = 1\nvalue = [0, 1]"] ;
1003 -> 1005 ;
1006 [label="entropy = 0.0\nsamples = 3\nvalue = [0, 3]"] ;
1002 -> 1006 ;
1007 [label="VRDeck <= 668.0\nentropy = 0.4\nsamples = 55\nvalue = [51, 4]"] ;
1001 -> 1007 ;
1008 [label="Spa <= 102.0\nentropy = 0.7\nsamples = 23\nvalue = [19, 4]"] ;
1007 -> 1008 ;
1009 [label="VRDeck <= 647.5\nentropy = 0.6\nsamples = 22\nvalue = [19, 3]"] ;
1008 -> 1009 ;
1010 [label="FoodCourt <= 5.0\nentropy = 0.5\nsamples = 21\nvalue = [19, 2]"] ;
1009 -> 1010 ;
1011 [label="entropy = 0.0\nsamples = 17\nvalue = [17, 0]"] ;
1010 -> 1011 ;
1012 [label="Age <= 38.5\nentropy = 1.0\nsamples = 4\nvalue = [2, 2]"] ;
1010 -> 1012 ;
1013 [label="entropy = 0.0\nsamples = 2\nvalue = [0, 2]"] ;
1012 -> 1013 ;
1014 [label="entropy = 0.0\nsamples = 2\nvalue = [2, 0]"] ;
1012 -> 1014 ;
1015 [label="entropy = 0.0\nsamples = 1\nvalue = [0, 1]"] ;
1009 -> 1015 ;
1016 [label="entropy = 0.0\nsamples = 1\nvalue = [0, 1]"] ;
1008 -> 1016 ;
1017 [label="entropy = 0.0\nsamples = 32\nvalue = [32, 0]"] ;
1007 -> 1017 ;
1018 [label="entropy = 0.0\nsamples = 50\nvalue = [50, 0]"] ;
1000 -> 1018 ;
1019 [label="Age <= 18.5\nentropy = 0.9\nsamples = 38\nvalue = [25, 13]"] ;
907 -> 1019 ;
1020 [label="entropy = 0.0\nsamples = 6\nvalue = [6, 0]"] ;
1019 -> 1020 ;
1021 [label="Destination_TRAPPIST-1e <= 0.5\nentropy = 1.0\nsamples = 32\nvalue = [19, 13]"] ;
1019 -> 1021 ;
1022 [label="Spa <= 204.0\nentropy = 0.8\nsamples = 8\nvalue = [2, 6]"] ;
1021 -> 1022 ;
1023 [label="entropy = 0.0\nsamples = 4\nvalue = [0, 4]"] ;
1022 -> 1023 ;
1024 [label="Destination_PSO J318.5-22 <= 0.5\nentropy = 1.0\nsamples = 4\nvalue = [2, 2]"] ;
1022 -> 1024 ;
1025 [label="entropy = 0.0\nsamples = 2\nvalue = [0, 2]"] ;
1024 -> 1025 ;
1026 [label="entropy = 0.0\nsamples = 2\nvalue = [2, 0]"] ;
1024 -> 1026 ;
1027 [label="RoomService <= 0.5\nentropy = 0.9\nsamples = 24\nvalue = [17, 7]"] ;
1021 -> 1027 ;
1028 [label="Spa <= 131.5\nentropy = 0.6\nsamples = 14\nvalue = [12, 2]"] ;
1027 -> 1028 ;
1029 [label="entropy = 0.0\nsamples = 1\nvalue = [0, 1]"] ;
1028 -> 1029 ;
1030 [label="VRDeck <= 1143.5\nentropy = 0.4\nsamples = 13\nvalue = [12, 1]"] ;
1028 -> 1030 ;
1031 [label="entropy = 0.0\nsamples = 12\nvalue = [12, 0]"] ;
1030 -> 1031 ;
1032 [label="entropy = 0.0\nsamples = 1\nvalue = [0, 1]"] ;
1030 -> 1032 ;
1033 [label="ShoppingMall <= 3.0\nentropy = 1.0\nsamples = 10\nvalue = [5, 5]"] ;
1027 -> 1033 ;
1034 [label="VRDeck <= 1090.5\nentropy = 0.7\nsamples = 6\nvalue = [1, 5]"] ;
1033 -> 1034 ;
1035 [label="entropy = 0.0\nsamples = 5\nvalue = [0, 5]"] ;
1034 -> 1035 ;
1036 [label="entropy = 0.0\nsamples = 1\nvalue = [1, 0]"] ;
1034 -> 1036 ;
1037 [label="entropy = 0.0\nsamples = 4\nvalue = [4, 0]"] ;
1033 -> 1037 ;
1038 [label="VRDeck <= 980.0\nentropy = 1.0\nsamples = 56\nvalue = [28, 28]"] ;
906 -> 1038 ;
1039 [label="Spa <= 318.5\nentropy = 0.9\nsamples = 28\nvalue = [8, 20]"] ;
1038 -> 1039 ;
1040 [label="FoodCourt <= 1228.0\nentropy = 0.6\nsamples = 20\nvalue = [3, 17]"] ;
1039 -> 1040 ;
1041 [label="Age <= 53.5\nentropy = 0.9\nsamples = 10\nvalue = [3, 7]"] ;
1040 -> 1041 ;
1042 [label="Spa <= 47.5\nentropy = 0.8\nsamples = 9\nvalue = [2, 7]"] ;
1041 -> 1042 ;
1043 [label="entropy = 0.0\nsamples = 5\nvalue = [0, 5]"] ;
1042 -> 1043 ;
1044 [label="Age <= 41.5\nentropy = 1.0\nsamples = 4\nvalue = [2, 2]"] ;
1042 -> 1044 ;
1045 [label="entropy = 0.0\nsamples = 2\nvalue = [2, 0]"] ;
1044 -> 1045 ;
1046 [label="entropy = 0.0\nsamples = 2\nvalue = [0, 2]"] ;
1044 -> 1046 ;
1047 [label="entropy = 0.0\nsamples = 1\nvalue = [1, 0]"] ;
1041 -> 1047 ;
1048 [label="entropy = 0.0\nsamples = 10\nvalue = [0, 10]"] ;
1040 -> 1048 ;
1049 [label="Spa <= 425.5\nentropy = 1.0\nsamples = 8\nvalue = [5, 3]"] ;
1039 -> 1049 ;
1050 [label="entropy = 0.0\nsamples = 4\nvalue = [4, 0]"] ;
1049 -> 1050 ;
1051 [label="FoodCourt <= 2343.5\nentropy = 0.8\nsamples = 4\nvalue = [1, 3]"] ;
1049 -> 1051 ;
1052 [label="entropy = 0.0\nsamples = 3\nvalue = [0, 3]"] ;
1051 -> 1052 ;
1053 [label="entropy = 0.0\nsamples = 1\nvalue = [1, 0]"] ;
1051 -> 1053 ;
1054 [label="FoodCourt <= 710.0\nentropy = 0.9\nsamples = 28\nvalue = [20, 8]"] ;
1038 -> 1054 ;
1055 [label="entropy = 0.0\nsamples = 7\nvalue = [7, 0]"] ;
1054 -> 1055 ;
1056 [label="Spa <= 0.5\nentropy = 1.0\nsamples = 21\nvalue = [13, 8]"] ;
1054 -> 1056 ;
1057 [label="entropy = 0.0\nsamples = 3\nvalue = [0, 3]"] ;
1056 -> 1057 ;
1058 [label="Spa <= 509.5\nentropy = 0.9\nsamples = 18\nvalue = [13, 5]"] ;
1056 -> 1058 ;
1059 [label="FoodCourt <= 778.0\nentropy = 0.7\nsamples = 16\nvalue = [13, 3]"] ;
1058 -> 1059 ;
1060 [label="entropy = 0.0\nsamples = 2\nvalue = [0, 2]"] ;
1059 -> 1060 ;
1061 [label="VRDeck <= 1666.5\nentropy = 0.4\nsamples = 14\nvalue = [13, 1]"] ;
1059 -> 1061 ;
1062 [label="entropy = 0.0\nsamples = 13\nvalue = [13, 0]"] ;
1061 -> 1062 ;
1063 [label="entropy = 0.0\nsamples = 1\nvalue = [0, 1]"] ;
1061 -> 1063 ;
1064 [label="entropy = 0.0\nsamples = 2\nvalue = [0, 2]"] ;
1058 -> 1064 ;
1065 [label="VRDeck <= 3906.0\nentropy = 0.2\nsamples = 108\nvalue = [104, 4]"] ;
905 -> 1065 ;
1066 [label="VRDeck <= 3830.0\nentropy = 0.3\nsamples = 61\nvalue = [57, 4]"] ;
1065 -> 1066 ;
1067 [label="ShoppingMall <= 2638.5\nentropy = 0.3\nsamples = 60\nvalue = [57, 3]"] ;
1066 -> 1067 ;
1068 [label="FoodCourt <= 2776.0\nentropy = 0.2\nsamples = 59\nvalue = [57, 2]"] ;
1067 -> 1068 ;
1069 [label="RoomService <= 6.5\nentropy = 0.1\nsamples = 57\nvalue = [56, 1]"] ;
1068 -> 1069 ;
1070 [label="entropy = 0.0\nsamples = 48\nvalue = [48, 0]"] ;
1069 -> 1070 ;
1071 [label="RoomService <= 9.5\nentropy = 0.5\nsamples = 9\nvalue = [8, 1]"] ;
1069 -> 1071 ;
1072 [label="VRDeck <= 2108.0\nentropy = 1.0\nsamples = 2\nvalue = [1, 1]"] ;
1071 -> 1072 ;
1073 [label="entropy = 0.0\nsamples = 1\nvalue = [1, 0]"] ;
1072 -> 1073 ;
1074 [label="entropy = 0.0\nsamples = 1\nvalue = [0, 1]"] ;
1072 -> 1074 ;
1075 [label="entropy = 0.0\nsamples = 7\nvalue = [7, 0]"] ;
1071 -> 1075 ;
1076 [label="Age <= 38.5\nentropy = 1.0\nsamples = 2\nvalue = [1, 1]"] ;
1068 -> 1076 ;
1077 [label="entropy = 0.0\nsamples = 1\nvalue = [1, 0]"] ;
1076 -> 1077 ;
1078 [label="entropy = 0.0\nsamples = 1\nvalue = [0, 1]"] ;
1076 -> 1078 ;
1079 [label="entropy = 0.0\nsamples = 1\nvalue = [0, 1]"] ;
1067 -> 1079 ;
1080 [label="entropy = 0.0\nsamples = 1\nvalue = [0, 1]"] ;
1066 -> 1080 ;
1081 [label="entropy = 0.0\nsamples = 47\nvalue = [47, 0]"] ;
1065 -> 1081 ;
1082 [label="VRDeck <= 1636.0\nentropy = 0.8\nsamples = 56\nvalue = [15, 41]"] ;
904 -> 1082 ;
1083 [label="entropy = 0.0\nsamples = 34\nvalue = [0, 34]"] ;
1082 -> 1083 ;
1084 [label="FoodCourt <= 4159.0\nentropy = 0.9\nsamples = 22\nvalue = [15, 7]"] ;
1082 -> 1084 ;
1085 [label="entropy = 0.0\nsamples = 8\nvalue = [8, 0]"] ;
1084 -> 1085 ;
1086 [label="VRDeck <= 6622.5\nentropy = 1.0\nsamples = 14\nvalue = [7, 7]"] ;
1084 -> 1086 ;
1087 [label="FoodCourt <= 4859.5\nentropy = 0.9\nsamples = 10\nvalue = [3, 7]"] ;
1086 -> 1087 ;
1088 [label="entropy = 0.0\nsamples = 3\nvalue = [0, 3]"] ;
1087 -> 1088 ;
1089 [label="ShoppingMall <= 0.5\nentropy = 1.0\nsamples = 7\nvalue = [3, 4]"] ;
1087 -> 1089 ;
1090 [label="Age <= 47.5\nentropy = 0.8\nsamples = 4\nvalue = [3, 1]"] ;
1089 -> 1090 ;
1091 [label="entropy = 0.0\nsamples = 3\nvalue = [3, 0]"] ;
1090 -> 1091 ;
1092 [label="entropy = 0.0\nsamples = 1\nvalue = [0, 1]"] ;
1090 -> 1092 ;
1093 [label="entropy = 0.0\nsamples = 3\nvalue = [0, 3]"] ;
1089 -> 1093 ;
1094 [label="entropy = 0.0\nsamples = 4\nvalue = [4, 0]"] ;
1086 -> 1094 ;
1095 [label="FoodCourt <= 1004.5\nentropy = 0.7\nsamples = 794\nvalue = [651, 143]"] ;
353 -> 1095 ;
1096 [label="Destination_TRAPPIST-1e <= 0.5\nentropy = 0.6\nsamples = 751\nvalue = [631, 120]"] ;
1095 -> 1096 ;
1097 [label="VRDeck <= 533.0\nentropy = 0.9\nsamples = 157\nvalue = [112, 45]"] ;
1096 -> 1097 ;
1098 [label="RoomService <= 329.5\nentropy = 0.9\nsamples = 145\nvalue = [100, 45]"] ;
1097 -> 1098 ;
1099 [label="entropy = 0.0\nsamples = 5\nvalue = [5, 0]"] ;
1098 -> 1099 ;
1100 [label="RoomService <= 342.0\nentropy = 0.9\nsamples = 140\nvalue = [95, 45]"] ;
1098 -> 1100 ;
1101 [label="entropy = 0.0\nsamples = 2\nvalue = [0, 2]"] ;
1100 -> 1101 ;
1102 [label="VRDeck <= 97.5\nentropy = 0.9\nsamples = 138\nvalue = [95, 43]"] ;
1100 -> 1102 ;
1103 [label="RoomService <= 427.5\nentropy = 0.9\nsamples = 122\nvalue = [88, 34]"] ;
1102 -> 1103 ;
1104 [label="entropy = 0.0\nsamples = 7\nvalue = [7, 0]"] ;
1103 -> 1104 ;
1105 [label="Spa <= 237.5\nentropy = 0.9\nsamples = 115\nvalue = [81, 34]"] ;
1103 -> 1105 ;
1106 [label="Spa <= 135.5\nentropy = 0.8\nsamples = 108\nvalue = [79, 29]"] ;
1105 -> 1106 ;
1107 [label="Spa <= 1.5\nentropy = 0.9\nsamples = 102\nvalue = [73, 29]"] ;
1106 -> 1107 ;
1108 [label="RoomService <= 1858.0\nentropy = 0.8\nsamples = 68\nvalue = [53, 15]"] ;
1107 -> 1108 ;
1109 [label="ShoppingMall <= 239.0\nentropy = 0.8\nsamples = 56\nvalue = [41, 15]"] ;
1108 -> 1109 ;
1110 [label="ShoppingMall <= 158.5\nentropy = 0.9\nsamples = 43\nvalue = [29, 14]"] ;
1109 -> 1110 ;
1111 [label="RoomService <= 555.5\nentropy = 0.8\nsamples = 38\nvalue = [28, 10]"] ;
1110 -> 1111 ;
1112 [label="entropy = 0.0\nsamples = 5\nvalue = [5, 0]"] ;
1111 -> 1112 ;
1113 [label="RoomService <= 871.0\nentropy = 0.9\nsamples = 33\nvalue = [23, 10]"] ;
1111 -> 1113 ;
1114 [label="RoomService <= 797.0\nentropy = 1.0\nsamples = 22\nvalue = [13, 9]"] ;
1113 -> 1114 ;
1115 [label="RoomService <= 651.0\nentropy = 0.9\nsamples = 20\nvalue = [13, 7]"] ;
1114 -> 1115 ;
1116 [label="FoodCourt <= 21.0\nentropy = 1.0\nsamples = 9\nvalue = [4, 5]"] ;
1115 -> 1116 ;
1117 [label="RoomService <= 637.0\nentropy = 0.7\nsamples = 5\nvalue = [1, 4]"] ;
1116 -> 1117 ;
1118 [label="entropy = 0.0\nsamples = 3\nvalue = [0, 3]"] ;
1117 -> 1118 ;
1119 [label="Destination_55 Cancri e <= 0.5\nentropy = 1.0\nsamples = 2\nvalue = [1, 1]"] ;
1117 -> 1119 ;
1120 [label="entropy = 0.0\nsamples = 1\nvalue = [0, 1]"] ;
1119 -> 1120 ;
1121 [label="entropy = 0.0\nsamples = 1\nvalue = [1, 0]"] ;
1119 -> 1121 ;
1122 [label="FoodCourt <= 162.5\nentropy = 0.8\nsamples = 4\nvalue = [3, 1]"] ;
1116 -> 1122 ;
1123 [label="entropy = 0.0\nsamples = 3\nvalue = [3, 0]"] ;
1122 -> 1123 ;
1124 [label="entropy = 0.0\nsamples = 1\nvalue = [0, 1]"] ;
1122 -> 1124 ;
1125 [label="FoodCourt <= 3.5\nentropy = 0.7\nsamples = 11\nvalue = [9, 2]"] ;
1115 -> 1125 ;
1126 [label="ShoppingMall <= 32.0\nentropy = 0.5\nsamples = 10\nvalue = [9, 1]"] ;
1125 -> 1126 ;
1127 [label="entropy = 0.0\nsamples = 7\nvalue = [7, 0]"] ;
1126 -> 1127 ;
1128 [label="Age <= 29.5\nentropy = 0.9\nsamples = 3\nvalue = [2, 1]"] ;
1126 -> 1128 ;
1129 [label="entropy = 0.0\nsamples = 2\nvalue = [2, 0]"] ;
1128 -> 1129 ;
1130 [label="entropy = 0.0\nsamples = 1\nvalue = [0, 1]"] ;
1128 -> 1130 ;
1131 [label="entropy = 0.0\nsamples = 1\nvalue = [0, 1]"] ;
1125 -> 1131 ;
1132 [label="entropy = 0.0\nsamples = 2\nvalue = [0, 2]"] ;
1114 -> 1132 ;
1133 [label="RoomService <= 1824.0\nentropy = 0.4\nsamples = 11\nvalue = [10, 1]"] ;
1113 -> 1133 ;
1134 [label="entropy = 0.0\nsamples = 10\nvalue = [10, 0]"] ;
1133 -> 1134 ;
1135 [label="entropy = 0.0\nsamples = 1\nvalue = [0, 1]"] ;
1133 -> 1135 ;
1136 [label="FoodCourt <= 2.5\nentropy = 0.7\nsamples = 5\nvalue = [1, 4]"] ;
1110 -> 1136 ;
1137 [label="entropy = 0.0\nsamples = 4\nvalue = [0, 4]"] ;
1136 -> 1137 ;
1138 [label="entropy = 0.0\nsamples = 1\nvalue = [1, 0]"] ;
1136 -> 1138 ;
1139 [label="ShoppingMall <= 5212.0\nentropy = 0.4\nsamples = 13\nvalue = [12, 1]"] ;
1109 -> 1139 ;
1140 [label="entropy = 0.0\nsamples = 12\nvalue = [12, 0]"] ;
1139 -> 1140 ;
1141 [label="entropy = 0.0\nsamples = 1\nvalue = [0, 1]"] ;
1139 -> 1141 ;
1142 [label="entropy = 0.0\nsamples = 12\nvalue = [12, 0]"] ;
1108 -> 1142 ;
1143 [label="RoomService <= 506.5\nentropy = 1.0\nsamples = 34\nvalue = [20, 14]"] ;
1107 -> 1143 ;
1144 [label="entropy = 0.0\nsamples = 7\nvalue = [7, 0]"] ;
1143 -> 1144 ;
1145 [label="Age <= 26.5\nentropy = 1.0\nsamples = 27\nvalue = [13, 14]"] ;
1143 -> 1145 ;
1146 [label="FoodCourt <= 3.5\nentropy = 0.5\nsamples = 9\nvalue = [1, 8]"] ;
1145 -> 1146 ;
1147 [label="Age <= 21.5\nentropy = 0.9\nsamples = 3\nvalue = [1, 2]"] ;
1146 -> 1147 ;
1148 [label="entropy = 0.0\nsamples = 1\nvalue = [1, 0]"] ;
1147 -> 1148 ;
1149 [label="entropy = 0.0\nsamples = 2\nvalue = [0, 2]"] ;
1147 -> 1149 ;
1150 [label="entropy = 0.0\nsamples = 6\nvalue = [0, 6]"] ;
1146 -> 1150 ;
1151 [label="Age <= 34.0\nentropy = 0.9\nsamples = 18\nvalue = [12, 6]"] ;
1145 -> 1151 ;
1152 [label="entropy = 0.0\nsamples = 6\nvalue = [6, 0]"] ;
1151 -> 1152 ;
1153 [label="RoomService <= 615.0\nentropy = 1.0\nsamples = 12\nvalue = [6, 6]"] ;
1151 -> 1153 ;
1154 [label="entropy = 0.0\nsamples = 3\nvalue = [3, 0]"] ;
1153 -> 1154 ;
1155 [label="HomePlanet_Mars <= 0.5\nentropy = 0.9\nsamples = 9\nvalue = [3, 6]"] ;
1153 -> 1155 ;
1156 [label="RoomService <= 693.5\nentropy = 1.0\nsamples = 6\nvalue = [3, 3]"] ;
1155 -> 1156 ;
1157 [label="entropy = 0.0\nsamples = 2\nvalue = [0, 2]"] ;
1156 -> 1157 ;
1158 [label="ShoppingMall <= 1.5\nentropy = 0.8\nsamples = 4\nvalue = [3, 1]"] ;
1156 -> 1158 ;
1159 [label="entropy = 0.0\nsamples = 1\nvalue = [0, 1]"] ;
1158 -> 1159 ;
1160 [label="entropy = 0.0\nsamples = 3\nvalue = [3, 0]"] ;
1158 -> 1160 ;
1161 [label="entropy = 0.0\nsamples = 3\nvalue = [0, 3]"] ;
1155 -> 1161 ;
1162 [label="entropy = 0.0\nsamples = 6\nvalue = [6, 0]"] ;
1106 -> 1162 ;
1163 [label="RoomService <= 971.0\nentropy = 0.9\nsamples = 7\nvalue = [2, 5]"] ;
1105 -> 1163 ;
1164 [label="entropy = 0.0\nsamples = 5\nvalue = [0, 5]"] ;
1163 -> 1164 ;
1165 [label="entropy = 0.0\nsamples = 2\nvalue = [2, 0]"] ;
1163 -> 1165 ;
1166 [label="RoomService <= 877.0\nentropy = 1.0\nsamples = 16\nvalue = [7, 9]"] ;
1102 -> 1166 ;
1167 [label="Age <= 20.5\nentropy = 1.0\nsamples = 12\nvalue = [7, 5]"] ;
1166 -> 1167 ;
1168 [label="entropy = 0.0\nsamples = 5\nvalue = [5, 0]"] ;
1167 -> 1168 ;
1169 [label="VRDeck <= 247.0\nentropy = 0.9\nsamples = 7\nvalue = [2, 5]"] ;
1167 -> 1169 ;
1170 [label="entropy = 0.0\nsamples = 5\nvalue = [0, 5]"] ;
1169 -> 1170 ;
1171 [label="entropy = 0.0\nsamples = 2\nvalue = [2, 0]"] ;
1169 -> 1171 ;
1172 [label="entropy = 0.0\nsamples = 4\nvalue = [0, 4]"] ;
1166 -> 1172 ;
1173 [label="entropy = 0.0\nsamples = 12\nvalue = [12, 0]"] ;
1097 -> 1173 ;
1174 [label="ShoppingMall <= 1319.5\nentropy = 0.5\nsamples = 594\nvalue = [519, 75]"] ;
1096 -> 1174 ;
1175 [label="Age <= 18.5\nentropy = 0.5\nsamples = 559\nvalue = [497, 62]"] ;
1174 -> 1175 ;
1176 [label="FoodCourt <= 3.0\nentropy = 0.2\nsamples = 66\nvalue = [64, 2]"] ;
1175 -> 1176 ;
1177 [label="entropy = 0.0\nsamples = 41\nvalue = [41, 0]"] ;
1176 -> 1177 ;
1178 [label="FoodCourt <= 21.5\nentropy = 0.4\nsamples = 25\nvalue = [23, 2]"] ;
1176 -> 1178 ;
1179 [label="Age <= 15.0\nentropy = 0.9\nsamples = 7\nvalue = [5, 2]"] ;
1178 -> 1179 ;
1180 [label="entropy = 0.0\nsamples = 4\nvalue = [4, 0]"] ;
1179 -> 1180 ;
1181 [label="HomePlanet_Mars <= 0.5\nentropy = 0.9\nsamples = 3\nvalue = [1, 2]"] ;
1179 -> 1181 ;
1182 [label="entropy = 0.0\nsamples = 2\nvalue = [0, 2]"] ;
1181 -> 1182 ;
1183 [label="entropy = 0.0\nsamples = 1\nvalue = [1, 0]"] ;
1181 -> 1183 ;
1184 [label="entropy = 0.0\nsamples = 18\nvalue = [18, 0]"] ;
1178 -> 1184 ;
1185 [label="Age <= 24.5\nentropy = 0.5\nsamples = 493\nvalue = [433, 60]"] ;
1175 -> 1185 ;
1186 [label="RoomService <= 517.0\nentropy = 0.7\nsamples = 143\nvalue = [114, 29]"] ;
1185 -> 1186 ;
1187 [label="ShoppingMall <= 713.5\nentropy = 0.2\nsamples = 24\nvalue = [23, 1]"] ;
1186 -> 1187 ;
1188 [label="entropy = 0.0\nsamples = 23\nvalue = [23, 0]"] ;
1187 -> 1188 ;
1189 [label="entropy = 0.0\nsamples = 1\nvalue = [0, 1]"] ;
1187 -> 1189 ;
1190 [label="Spa <= 77.0\nentropy = 0.8\nsamples = 119\nvalue = [91, 28]"] ;
1186 -> 1190 ;
1191 [label="Spa <= 24.0\nentropy = 0.7\nsamples = 96\nvalue = [78, 18]"] ;
1190 -> 1191 ;
1192 [label="RoomService <= 529.5\nentropy = 0.7\nsamples = 87\nvalue = [69, 18]"] ;
1191 -> 1192 ;
1193 [label="entropy = 0.0\nsamples = 1\nvalue = [0, 1]"] ;
1192 -> 1193 ;
1194 [label="RoomService <= 640.0\nentropy = 0.7\nsamples = 86\nvalue = [69, 17]"] ;
1192 -> 1194 ;
1195 [label="entropy = 0.0\nsamples = 13\nvalue = [13, 0]"] ;
1194 -> 1195 ;
1196 [label="RoomService <= 702.5\nentropy = 0.8\nsamples = 73\nvalue = [56, 17]"] ;
1194 -> 1196 ;
1197 [label="ShoppingMall <= 14.5\nentropy = 0.9\nsamples = 7\nvalue = [2, 5]"] ;
1196 -> 1197 ;
1198 [label="VRDeck <= 9.0\nentropy = 0.9\nsamples = 3\nvalue = [2, 1]"] ;
1197 -> 1198 ;
1199 [label="entropy = 0.0\nsamples = 2\nvalue = [2, 0]"] ;
1198 -> 1199 ;
1200 [label="entropy = 0.0\nsamples = 1\nvalue = [0, 1]"] ;
1198 -> 1200 ;
1201 [label="entropy = 0.0\nsamples = 4\nvalue = [0, 4]"] ;
1197 -> 1201 ;
1202 [label="Spa <= 1.5\nentropy = 0.7\nsamples = 66\nvalue = [54, 12]"] ;
1196 -> 1202 ;
1203 [label="VRDeck <= 627.0\nentropy = 0.8\nsamples = 53\nvalue = [41, 12]"] ;
1202 -> 1203 ;
1204 [label="RoomService <= 2149.5\nentropy = 0.7\nsamples = 52\nvalue = [41, 11]"] ;
1203 -> 1204 ;
1205 [label="Spa <= 0.5\nentropy = 0.7\nsamples = 42\nvalue = [35, 7]"] ;
1204 -> 1205 ;
1206 [label="RoomService <= 1027.0\nentropy = 0.5\nsamples = 36\nvalue = [32, 4]"] ;
1205 -> 1206 ;
1207 [label="RoomService <= 994.5\nentropy = 0.7\nsamples = 21\nvalue = [17, 4]"] ;
1206 -> 1207 ;
1208 [label="RoomService <= 730.0\nentropy = 0.6\nsamples = 20\nvalue = [17, 3]"] ;
1207 -> 1208 ;
1209 [label="RoomService <= 719.0\nentropy = 0.9\nsamples = 6\nvalue = [4, 2]"] ;
1208 -> 1209 ;
1210 [label="entropy = 0.0\nsamples = 3\nvalue = [3, 0]"] ;
1209 -> 1210 ;
1211 [label="FoodCourt <= 92.0\nentropy = 0.9\nsamples = 3\nvalue = [1, 2]"] ;
1209 -> 1211 ;
1212 [label="entropy = 0.0\nsamples = 2\nvalue = [0, 2]"] ;
1211 -> 1212 ;
1213 [label="entropy = 0.0\nsamples = 1\nvalue = [1, 0]"] ;
1211 -> 1213 ;
